{"learner":{"attributes":{"best_iteration":"999","best_ntree_limit":"1000","scikit_learn":"{\"n_estimators\": 1000, \"objective\": \"reg:squarederror\", \"max_depth\": 4, \"learning_rate\": 0.01, \"verbosity\": null, \"booster\": null, \"tree_method\": \"gpu_hist\", \"gamma\": null, \"min_child_weight\": 3, \"max_delta_step\": null, \"subsample\": 0.5, \"colsample_bytree\": 0.7, \"colsample_bylevel\": null, \"colsample_bynode\": null, \"reg_alpha\": 0.1, \"reg_lambda\": 5, \"scale_pos_weight\": null, \"base_score\": null, \"missing\": NaN, \"num_parallel_tree\": null, \"random_state\": 0, \"n_jobs\": null, \"monotone_constraints\": null, \"interaction_constraints\": null, \"importance_type\": null, \"gpu_id\": null, \"validate_parameters\": null, \"predictor\": null, \"enable_categorical\": false, \"_estimator_type\": \"regressor\"}"},"feature_names":[],"feature_types":[],"gradient_booster":{"model":{"gbtree_model_param":{"num_trees":"1000","size_leaf_vector":"0"},"tree_info":[0,0,0,0,0,0,0,0,0,0,0,0,0,0,0,0,0,0,0,0,0,0,0,0,0,0,0,0,0,0,0,0,0,0,0,0,0,0,0,0,0,0,0,0,0,0,0,0,0,0,0,0,0,0,0,0,0,0,0,0,0,0,0,0,0,0,0,0,0,0,0,0,0,0,0,0,0,0,0,0,0,0,0,0,0,0,0,0,0,0,0,0,0,0,0,0,0,0,0,0,0,0,0,0,0,0,0,0,0,0,0,0,0,0,0,0,0,0,0,0,0,0,0,0,0,0,0,0,0,0,0,0,0,0,0,0,0,0,0,0,0,0,0,0,0,0,0,0,0,0,0,0,0,0,0,0,0,0,0,0,0,0,0,0,0,0,0,0,0,0,0,0,0,0,0,0,0,0,0,0,0,0,0,0,0,0,0,0,0,0,0,0,0,0,0,0,0,0,0,0,0,0,0,0,0,0,0,0,0,0,0,0,0,0,0,0,0,0,0,0,0,0,0,0,0,0,0,0,0,0,0,0,0,0,0,0,0,0,0,0,0,0,0,0,0,0,0,0,0,0,0,0,0,0,0,0,0,0,0,0,0,0,0,0,0,0,0,0,0,0,0,0,0,0,0,0,0,0,0,0,0,0,0,0,0,0,0,0,0,0,0,0,0,0,0,0,0,0,0,0,0,0,0,0,0,0,0,0,0,0,0,0,0,0,0,0,0,0,0,0,0,0,0,0,0,0,0,0,0,0,0,0,0,0,0,0,0,0,0,0,0,0,0,0,0,0,0,0,0,0,0,0,0,0,0,0,0,0,0,0,0,0,0,0,0,0,0,0,0,0,0,0,0,0,0,0,0,0,0,0,0,0,0,0,0,0,0,0,0,0,0,0,0,0,0,0,0,0,0,0,0,0,0,0,0,0,0,0,0,0,0,0,0,0,0,0,0,0,0,0,0,0,0,0,0,0,0,0,0,0,0,0,0,0,0,0,0,0,0,0,0,0,0,0,0,0,0,0,0,0,0,0,0,0,0,0,0,0,0,0,0,0,0,0,0,0,0,0,0,0,0,0,0,0,0,0,0,0,0,0,0,0,0,0,0,0,0,0,0,0,0,0,0,0,0,0,0,0,0,0,0,0,0,0,0,0,0,0,0,0,0,0,0,0,0,0,0,0,0,0,0,0,0,0,0,0,0,0,0,0,0,0,0,0,0,0,0,0,0,0,0,0,0,0,0,0,0,0,0,0,0,0,0,0,0,0,0,0,0,0,0,0,0,0,0,0,0,0,0,0,0,0,0,0,0,0,0,0,0,0,0,0,0,0,0,0,0,0,0,0,0,0,0,0,0,0,0,0,0,0,0,0,0,0,0,0,0,0,0,0,0,0,0,0,0,0,0,0,0,0,0,0,0,0,0,0,0,0,0,0,0,0,0,0,0,0,0,0,0,0,0,0,0,0,0,0,0,0,0,0,0,0,0,0,0,0,0,0,0,0,0,0,0,0,0,0,0,0,0,0,0,0,0,0,0,0,0,0,0,0,0,0,0,0,0,0,0,0,0,0,0,0,0,0,0,0,0,0,0,0,0,0,0,0,0,0,0,0,0,0,0,0,0,0,0,0,0,0,0,0,0,0,0,0,0,0,0,0,0,0,0,0,0,0,0,0,0,0,0,0,0,0,0,0,0,0,0,0,0,0,0,0,0,0,0,0,0,0,0,0,0,0,0,0,0,0,0,0,0,0,0,0,0,0,0,0,0,0,0,0,0,0,0,0,0,0,0,0,0,0,0,0,0,0,0,0,0,0,0,0,0,0,0,0,0,0,0,0,0,0,0,0,0,0,0,0,0,0,0,0,0,0,0,0,0,0,0,0,0,0,0,0,0,0,0,0,0,0,0,0,0,0,0,0,0,0,0,0,0,0,0,0,0,0,0,0,0,0,0,0,0,0,0,0,0,0,0,0,0,0,0,0,0,0,0,0,0,0,0,0,0,0,0,0,0,0,0,0,0,0,0,0,0,0,0,0,0,0,0,0,0,0,0,0,0,0,0,0,0,0,0,0,0,0,0,0,0,0,0,0,0,0,0,0,0,0,0,0,0,0,0,0,0,0,0,0,0,0,0,0,0,0,0,0,0,0,0,0,0,0,0,0,0,0,0,0,0,0,0,0,0,0,0,0,0,0,0,0,0,0,0,0,0,0,0,0,0,0,0,0,0,0,0,0,0,0,0,0,0,0,0,0,0,0,0,0,0,0,0,0],"trees":[{"base_weights":[2.6693227E-2,-3.6880735E-1,3.249135E-1,-3.9714286E-1,2.2307693E-3,-1.4390244E-1,3.9486167E-1,-4.2916667E-1,-3.9130434E-2,-3.1333333E-1,2.125E-1,-1E-1,4.2635983E-1,-4.43617E-3,1E-3,1.5E-3,-2.8333333E-3,-3.6666666E-3,5E-4,3E-3,-5E-4,2.3999999E-3,-3.1428572E-3,4.5E-3,-2E-3],"categories":[],"categories_nodes":[],"categories_segments":[],"categories_sizes":[],"default_left":[true,true,true,true,false,true,true,true,true,true,true,true,true,false,false,false,false,false,false,false,false,false,false,false,false],"id":0,"left_children":[1,3,5,7,-1,9,11,13,15,17,19,21,23,-1,-1,-1,-1,-1,-1,-1,-1,-1,-1,-1,-1],"loss_changes":[5.9803795E1,4.1165295E0,9.786327E0,2.2768364E0,0E0,2.818809E0,4.1893883E0,1.7243233E0,1.2881159E0,7.0466685E-1,4.674999E-1,1.768857E0,4.0139313E0,0E0,0E0,0E0,0E0,0E0,0E0,0E0,0E0,0E0,0E0,0E0,0E0],"parents":[2147483647,0,0,1,1,2,2,3,3,5,5,6,6,7,7,8,8,9,9,10,10,11,11,12,12],"right_children":[2,4,6,8,-1,10,12,14,16,18,20,22,24,-1,-1,-1,-1,-1,-1,-1,-1,-1,-1,-1,-1],"split_conditions":[2.1E1,1.8612732E0,4.2065773E0,5.3876047E0,2.2307693E-3,6.2522316E-1,7.7093863E-1,3.232343E0,2.4425771E0,2.7794022E-2,1.0569896E1,-3.1905012E0,-9.089771E0,-4.43617E-3,1E-3,1.5E-3,-2.8333333E-3,-3.6666666E-3,5E-4,3E-3,-5E-4,2.3999999E-3,-3.1428572E-3,4.5E-3,-2E-3],"split_indices":[2748,3803,2218,2419,0,3564,3995,3875,3110,3201,2225,2284,2242,0,0,0,0,0,0,0,0,0,0,0,0],"split_type":[0,0,0,0,0,0,0,0,0,0,0,0,0,0,0,0,0,0,0,0,0,0,0,0,0],"sum_hessian":[4.97E2,2.13E2,2.84E2,2.05E2,8E0,3.6E1,2.48E2,1.87E2,1.8E1,2.5E1,1.1E1,1.4E1,2.34E2,1.83E2,4E0,1.1E1,7E0,2.2E1,3E0,8E0,3E0,5E0,9E0,2.27E2,7E0],"tree_param":{"num_deleted":"0","num_feature":"5217","num_nodes":"25","size_leaf_vector":"0"}},{"base_weights":[3.0672388E-2,-3.5457098E-1,3.062289E-1,-4.3605827E-2,-4.1744217E-1,-3.121508E-1,3.703497E-1,-3.3350855E-1,2.2705622E-1,-5.7438273E-2,-4.3715292E-1,9.985184E-4,-3.9858427E-3,4.113273E-1,-3.3419523E-2,-3.6055245E-3,-4.833642E-4,3.649387E-3,-1.3844862E-3,-2.6175627E-3,2.1308276E-3,-4.485577E-3,5.166355E-4,-1.3960475E-3,4.262545E-3,-2.7143331E-3,3.1139287E-3],"categories":[],"categories_nodes":[],"categories_segments":[],"categories_sizes":[],"default_left":[true,false,false,true,true,false,true,false,false,false,true,false,false,false,true,false,false,false,false,false,false,false,false,false,false,false,false],"id":1,"left_children":[1,3,5,7,9,11,13,15,17,19,21,-1,-1,23,25,-1,-1,-1,-1,-1,-1,-1,-1,-1,-1,-1,-1],"loss_changes":[5.3191605E1,3.9489899E0,1.2161934E1,3.6063635E0,1.0525932E0,1.2971945E0,4.52417E0,4.1639805E-2,1.4847966E0,1.112831E0,1.0642643E0,0E0,0E0,2.3246078E0,2.7986493E0,0E0,0E0,0E0,0E0,0E0,0E0,0E0,0E0,0E0,0E0,0E0,0E0],"parents":[2147483647,0,0,1,1,2,2,3,3,4,4,5,5,6,6,7,7,8,8,9,9,10,10,13,13,14,14],"right_children":[2,4,6,8,10,12,14,16,18,20,22,-1,-1,24,26,-1,-1,-1,-1,-1,-1,-1,-1,-1,-1,-1,-1],"split_conditions":[4.143163E1,-5.20491E0,2.4275122E1,-7.720544E-1,6.8001914E-1,-6.0756934E2,2.605147E-1,1.7948183E1,2.518619E-1,5.9565916E0,7.6812334E0,9.985184E-4,-3.9858427E-3,4.2936606E0,-7.926104E0,-3.6055245E-3,-4.833642E-4,3.649387E-3,-1.3844862E-3,-2.6175627E-3,2.1308276E-3,-4.485577E-3,5.166355E-4,-1.3960475E-3,4.262545E-3,-2.7143331E-3,3.1139287E-3],"split_indices":[4105,2372,2592,2407,3304,3013,3992,2556,2261,2937,4084,0,0,3983,2436,0,0,0,0,0,0,0,0,0,0,0,0],"split_type":[0,0,0,0,0,0,0,0,0,0,0,0,0,0,0,0,0,0,0,0,0,0,0,0,0,0,0],"sum_hessian":[4.91E2,2.04E2,2.87E2,3.6E1,1.68E2,2.5E1,2.62E2,1.7E1,1.9E1,1E1,1.58E2,4E0,2.1E1,2.38E2,2.4E1,1.4E1,3E0,1.4E1,5E0,6E0,4E0,1.55E2,3E0,5E0,2.33E2,1.5E1,9E0],"tree_param":{"num_deleted":"0","num_feature":"5217","num_nodes":"27","size_leaf_vector":"0"}},{"base_weights":[2.2881445E-2,-3.7341714E-1,3.268008E-1,1.3407919E-1,-4.100731E-1,3.8219154E-1,-2.8184605E-1,-2.0798445E-3,3.1323466E-3,-4.3168446E-1,-0E0,-1.5253201E-1,4.0949768E-1,-3.77949E-3,9.854228E-4,-4.4642114E-3,1.0322444E-3,-2.373264E-3,2.400299E-3,-3.010942E-3,1.7171404E-3,-1.7065919E-3,4.27897E-3],"categories":[],"categories_nodes":[],"categories_segments":[],"categories_sizes":[],"default_left":[false,true,true,false,true,true,true,false,false,true,true,true,true,false,false,false,false,false,false,false,false,false,false],"id":2,"left_children":[1,3,5,7,9,11,13,-1,-1,15,17,19,21,-1,-1,-1,-1,-1,-1,-1,-1,-1,-1],"loss_changes":[5.9381596E1,4.2835026E0,9.954674E0,1.439351E0,1.7929802E0,4.1051254E0,1.1646278E0,0E0,0E0,1.7703362E0,1.1393819E0,1.0421798E0,3.0274467E0,0E0,0E0,0E0,0E0,0E0,0E0,0E0,0E0,0E0,0E0],"parents":[2147483647,0,0,1,1,2,2,3,3,4,4,5,5,6,6,9,9,10,10,11,11,12,12],"right_children":[2,4,6,8,10,12,14,-1,-1,16,18,20,22,-1,-1,-1,-1,-1,-1,-1,-1,-1,-1],"split_conditions":[2.1E1,-8.742681E-1,-3.5514908E0,2.397867E0,2.196713E0,3.761997E0,1.2790551E2,-2.0798445E-3,3.1323466E-3,2.3972687E1,2.2567142E1,1.0645703E1,9.7296295E0,-3.77949E-3,9.854228E-4,-4.4642114E-3,1.0322444E-3,-2.373264E-3,2.400299E-3,-3.010942E-3,1.7171404E-3,-1.7065919E-3,4.27897E-3],"split_indices":[2748,2435,4027,2552,3783,2302,3000,0,0,4054,4037,2546,2387,0,0,0,0,0,0,0,0,0,0],"split_type":[0,0,0,0,0,0,0,0,0,0,0,0,0,0,0,0,0,0,0,0,0,0,0],"sum_hessian":[4.83E2,2.09E2,2.74E2,1.3E1,1.96E2,2.53E2,2.1E1,4E0,9E0,1.86E2,1E1,1.1E1,2.42E2,1.7E1,4E0,1.82E2,4E0,5E0,5E0,8E0,3E0,6E0,2.36E2],"tree_param":{"num_deleted":"0","num_feature":"5217","num_nodes":"23","size_leaf_vector":"0"}},{"base_weights":[2.6427392E-2,3.2442018E-1,-3.547147E-1,-1.6471413E-1,3.9350927E-1,2.6140255E-3,-3.786758E-1,-2.8932554E-1,2.63571E-3,-2.0160638E-3,4.1548362E-1,-3.994086E-1,1.7451283E-3,-3.7054755E-3,1.7343275E-3,-6.255407E-4,4.380625E-3,-4.207919E-3,7.3846825E-4],"categories":[],"categories_nodes":[],"categories_segments":[],"categories_sizes":[],"default_left":[true,false,true,false,false,false,true,false,false,false,false,false,false,false,false,false,false,false,false],"id":3,"left_children":[1,3,5,7,9,-1,11,13,-1,-1,15,17,-1,-1,-1,-1,-1,-1,-1],"loss_changes":[5.6679684E1,9.809237E0,3.739725E0,2.411895E0,3.6702995E0,0E0,2.8139343E0,1.5437946E0,0E0,0E0,2.7650223E0,2.284855E0,0E0,0E0,0E0,0E0,0E0,0E0,0E0],"parents":[2147483647,0,0,1,1,2,2,3,3,4,4,6,6,7,7,10,10,11,11],"right_children":[2,4,6,8,10,-1,12,14,-1,-1,16,18,-1,-1,-1,-1,-1,-1,-1],"split_conditions":[-1.1266634E1,9.046999E0,-1.7817091E3,1.164007E0,1.8934494E0,2.6140255E-3,2.0599842E0,4E0,2.63571E-3,-2.0160638E-3,-1.1250877E-1,6.187908E0,1.7451283E-3,-3.7054755E-3,1.7343275E-3,-6.255407E-4,4.380625E-3,-4.207919E-3,7.3846825E-4],"split_indices":[2221,2347,3016,3272,2882,0,3724,3629,0,0,3094,3904,0,0,0,0,0,0,0],"split_type":[0,0,0,0,0,0,0,0,0,0,0,0,0,0,0,0,0,0,0],"sum_hessian":[4.89E2,2.75E2,2.14E2,3.3E1,2.42E2,6E0,2.08E2,2.7E1,6E0,7E0,2.35E2,2.02E2,6E0,2.4E1,3E0,1E1,2.25E2,1.94E2,8E0],"tree_param":{"num_deleted":"0","num_feature":"5217","num_nodes":"19","size_leaf_vector":"0"}},{"base_weights":[6.587822E-2,-2.9780143E-1,3.5932562E-1,1.3604766E-1,-3.6682996E-1,-3.2207859E-3,3.9383748E-1,-2.7682153E-3,3.1101534E-1,1.229092E-1,-3.906387E-1,-1.7313533E-3,4.1195995E-1,-4.9213704E-4,3.7586787E-3,2.157323E-3,-4.5835035E-4,1.7605948E-3,-4.0631355E-3,4.346088E-3,-6.7485747E-4],"categories":[],"categories_nodes":[],"categories_segments":[],"categories_sizes":[],"default_left":[true,true,false,false,true,false,true,false,false,true,false,false,false,false,false,false,false,false,false,false,false],"id":4,"left_children":[1,3,5,7,9,-1,11,-1,13,15,17,-1,19,-1,-1,-1,-1,-1,-1,-1,-1],"loss_changes":[4.9632786E1,6.501787E0,6.6851616E0,2.7455385E0,2.3773098E0,0E0,2.918419E0,0E0,7.091987E-1,2.543906E-1,1.9263248E0,0E0,2.8003578E0,0E0,0E0,0E0,0E0,0E0,0E0,0E0,0E0],"parents":[2147483647,0,0,1,1,2,2,3,3,4,4,6,6,8,8,9,9,10,10,12,12],"right_children":[2,4,6,8,10,-1,12,-1,14,16,18,-1,20,-1,-1,-1,-1,-1,-1,-1,-1],"split_conditions":[2.2E1,-5.907708E0,1.7959E0,2.598021E1,-1.0007859E1,-3.2207859E-3,4.5826006E0,-2.7682153E-3,-5.6779945E-1,9.838051E-1,2.1045142E-1,-1.7313533E-3,3.4723475E0,-4.9213704E-4,3.7586787E-3,2.157323E-3,-4.5835035E-4,1.7605948E-3,-4.0631355E-3,4.346088E-3,-6.7485747E-4],"split_indices":[2748,2372,2636,4036,2268,0,3984,0,2224,3310,3992,0,3122,0,0,0,0,0,0,0,0],"split_type":[0,0,0,0,0,0,0,0,0,0,0,0,0,0,0,0,0,0,0,0,0],"sum_hessian":[4.55E2,2.03E2,2.52E2,2.7E1,1.76E2,1E1,2.42E2,7E0,2E1,7E0,1.69E2,6E0,2.36E2,3E0,1.7E1,4E0,3E0,3E0,1.66E2,2.26E2,1E1],"tree_param":{"num_deleted":"0","num_feature":"5217","num_nodes":"21","size_leaf_vector":"0"}},{"base_weights":[3.2488726E-2,-3.4470055E-1,3.116569E-1,5.8246434E-2,-3.9415932E-1,3.9126977E-1,-9.52265E-2,-2.0591167E-1,3.2726624E-3,-4.2412078E-1,6.81264E-2,4.1142398E-1,-2.4178915E-3,2.6084906E-1,-2.9963192E-1,-2.9197866E-3,5.0142023E-4,-4.406852E-3,1.040723E-3,-2.0426984E-3,2.6912042E-3,4.3185647E-3,-1.1775142E-3,3.3704E-3,-5.1587337E-4,-0E0,-3.950321E-3],"categories":[],"categories_nodes":[],"categories_segments":[],"categories_sizes":[],"default_left":[true,false,true,true,true,true,true,true,false,true,true,true,false,true,true,false,false,false,false,false,false,false,false,false,false,false,false],"id":5,"left_children":[1,3,5,7,9,11,13,15,-1,17,19,21,-1,23,25,-1,-1,-1,-1,-1,-1,-1,-1,-1,-1,-1,-1],"loss_changes":[4.9497986E1,4.1342354E0,8.962051E0,2.1967328E0,2.6593552E0,3.4106064E0,3.888293E0,4.499901E-1,0E0,1.7416E0,1.1026013E0,2.686016E0,0E0,5.915767E-1,9.385431E-1,0E0,0E0,0E0,0E0,0E0,0E0,0E0,0E0,0E0,0E0,0E0,0E0],"parents":[2147483647,0,0,1,1,2,2,3,3,4,4,5,5,6,6,7,7,9,9,10,10,11,11,13,13,14,14],"right_children":[2,4,6,8,10,12,14,16,-1,18,20,22,-1,24,26,-1,-1,-1,-1,-1,-1,-1,-1,-1,-1,-1,-1],"split_conditions":[2.1E1,-5.591881E0,-4.4356647E0,2.6258914E0,1.647603E1,1.6885095E0,2.0559094E2,1.1750561E0,3.2726624E-3,1E0,-8.582252E-1,7.6368046E-1,-2.4178915E-3,4.4176373E1,5.0770144E0,-2.9197866E-3,5.0142023E-4,-4.406852E-3,1.040723E-3,-2.0426984E-3,2.6912042E-3,4.3185647E-3,-1.1775142E-3,3.3704E-3,-5.1587337E-4,-0E0,-3.950321E-3],"split_indices":[2748,2372,4027,2555,4059,4092,2904,3277,0,404,2449,2519,0,2572,2460,0,0,0,0,0,0,0,0,0,0,0,0],"split_type":[0,0,0,0,0,0,0,0,0,0,0,0,0,0,0,0,0,0,0,0,0,0,0,0,0,0,0],"sum_hessian":[4.6E2,1.95E2,2.65E2,2.1E1,1.74E2,2.22E2,4.3E1,1.1E1,1E1,1.64E2,1E1,2.17E2,5E0,1.5E1,2.8E1,8E0,3E0,1.6E2,4E0,4E0,6E0,2.1E2,7E0,1.2E1,3E0,8E0,2E1],"tree_param":{"num_deleted":"0","num_feature":"5217","num_nodes":"27","size_leaf_vector":"0"}},{"base_weights":[3.9875593E-2,-3.6142695E-1,3.0660668E-1,-3.9499626E-1,-6.18453E-3,3.7835473E-1,-2.1634804E-1,-4.1027826E-1,1.0539126E-3,-2.984837E-3,3.0328557E-3,3.9923468E-1,-2.0595826E-3,-3.7149227E-1,2.171956E-3,2.4431476E-5,-4.258719E-3,-1.9890675E-3,4.209693E-3,-3.9524348E-3,-4.6649206E-4],"categories":[],"categories_nodes":[],"categories_segments":[],"categories_sizes":[],"default_left":[true,true,true,false,true,true,true,false,false,false,false,false,false,true,false,false,false,false,false,false,false],"id":6,"left_children":[1,3,5,7,9,11,13,15,-1,-1,-1,17,-1,19,-1,-1,-1,-1,-1,-1,-1],"loss_changes":[5.171365E1,2.249239E0,1.1306562E1,1.5925484E0,2.4422216E0,3.5659637E0,2.9748101E0,1.1545086E0,0E0,0E0,0E0,3.6909752E0,0E0,9.508419E-2,0E0,0E0,0E0,0E0,0E0,0E0,0E0],"parents":[2147483647,0,0,1,1,2,2,3,3,4,4,5,5,6,6,7,7,11,11,13,13],"right_children":[2,4,6,8,10,12,14,16,-1,-1,-1,18,-1,20,-1,-1,-1,-1,-1,-1,-1],"split_conditions":[4.1986877E1,3.4771427E1,-7.907133E0,1E0,2.5618425E-1,6.5104164E-2,4.1219E0,-2.0217967E0,1.0539126E-3,-2.984837E-3,3.0328557E-3,3.2998108E1,-2.0595826E-3,1E0,2.171956E-3,2.4431476E-5,-4.258719E-3,-1.9890675E-3,4.209693E-3,-3.9524348E-3,-4.6649206E-4],"split_indices":[4105,4066,2335,1589,2373,4292,2636,2243,0,0,0,4013,0,4756,0,0,0,0,0,0,0],"split_type":[0,0,0,0,0,0,0,0,0,0,0,0,0,0,0,0,0,0,0,0,0],"sum_hessian":[4.73E2,1.88E2,2.85E2,1.71E2,1.7E1,2.52E2,3.3E1,1.67E2,4E0,9E0,8E0,2.45E2,7E0,2.5E1,8E0,6E0,1.61E2,7E0,2.38E2,2.2E1,3E0],"tree_param":{"num_deleted":"0","num_feature":"5217","num_nodes":"21","size_leaf_vector":"0"}},{"base_weights":[1.855922E-2,3.2243675E-1,-3.2408053E-1,-3.1343856E-1,3.839965E-1,-3.8483825E-1,3.8905293E-2,-3.7506744E-3,4.7143447E-4,4.0187287E-1,-2.252472E-3,-4.0282795E-1,2.1362319E-3,3.0148083E-1,-2.9774415E-1,-1.4590006E-3,4.1712224E-3,-4.1671405E-3,1.7491409E-3,3.6770215E-3,-4.8275696E-4,-4.5059426E-4,-3.2479146E-3],"categories":[],"categories_nodes":[],"categories_segments":[],"categories_sizes":[],"default_left":[true,true,true,true,true,true,true,false,false,true,false,false,false,true,true,false,false,false,false,false,false,false,false],"id":7,"left_children":[1,3,5,7,9,11,13,-1,-1,15,-1,17,-1,19,21,-1,-1,-1,-1,-1,-1,-1,-1],"loss_changes":[5.2061974E1,1.0982098E1,5.2921906E0,6.989808E-1,3.1276855E0,2.623949E0,3.808239E0,0E0,0E0,2.3278313E0,0E0,1.9771004E0,0E0,6.765704E-1,1.9694805E-2,0E0,0E0,0E0,0E0,0E0,0E0,0E0,0E0],"parents":[2147483647,0,0,1,1,2,2,3,3,4,4,5,5,6,6,9,9,11,11,13,13,14,14],"right_children":[2,4,6,8,10,12,14,-1,-1,16,-1,18,-1,20,22,-1,-1,-1,-1,-1,-1,-1,-1],"split_conditions":[-9.882303E0,7.3738565E0,3.9553E0,2.0100586E1,6.0541767E-1,2.283983E0,-2.9722044E0,-3.7506744E-3,4.7143447E-4,-1.1242938E-1,-2.252472E-3,1E0,2.1362319E-3,6.797965E-4,4.5910044E0,-1.4590006E-3,4.1712224E-3,-4.1671405E-3,1.7491409E-3,3.6770215E-3,-4.8275696E-4,-4.5059426E-4,-3.2479146E-3],"split_indices":[2318,4078,2636,2577,3999,2304,2512,0,0,3198,0,796,0,3069,2234,0,0,0,0,0,0,0,0],"split_type":[0,0,0,0,0,0,0,0,0,0,0,0,0,0,0,0,0,0,0,0,0,0,0],"sum_hessian":[4.9E2,2.6E2,2.3E2,2.1E1,2.39E2,1.97E2,3.3E1,1.8E1,3E0,2.34E2,5E0,1.93E2,4E0,1.9E1,1.4E1,5E0,2.29E2,1.9E2,3E0,1.6E1,3E0,3E0,1.1E1],"tree_param":{"num_deleted":"0","num_feature":"5217","num_nodes":"23","size_leaf_vector":"0"}},{"base_weights":[1.1468798E-2,-3.447993E-1,3.0994192E-1,2.0390457E-1,-3.8057563E-1,3.8948524E-1,-4.8361566E-2,2.894739E-3,-5.008595E-4,-3.9815685E-1,1.4254571E-3,4.198207E-1,-1.3208261E-1,1.9444075E-1,-3.1372538E-1,-4.1225255E-3,1.1107266E-3,4.3372675E-3,-3.3754237E-5,1.6533813E-3,-2.8366202E-3,3.6520108E-3,-1.9130352E-3,-3.7560104E-3,4.7745564E-4],"categories":[],"categories_nodes":[],"categories_segments":[],"categories_sizes":[],"default_left":[true,false,false,true,true,true,false,false,false,true,false,true,true,true,true,false,false,false,false,false,false,false,false,false,false],"id":8,"left_children":[1,3,5,7,9,11,13,-1,-1,15,-1,17,19,21,23,-1,-1,-1,-1,-1,-1,-1,-1,-1,-1],"loss_changes":[4.9232944E1,4.5477314E0,7.3104553E0,4.4417238E-1,2.1487617E0,3.5811863E0,3.5384805E0,0E0,0E0,1.6587696E0,0E0,1.2096977E0,9.2257607E-1,2.2769358E0,7.039747E-1,0E0,0E0,0E0,0E0,0E0,0E0,0E0,0E0,0E0,0E0],"parents":[2147483647,0,0,1,1,2,2,3,3,4,4,5,5,6,6,9,9,11,11,12,12,13,13,14,14],"right_children":[2,4,6,8,10,12,14,-1,-1,16,-1,18,20,22,24,-1,-1,-1,-1,-1,-1,-1,-1,-1,-1],"split_conditions":[1.1397681E1,-6.2438707E0,-4.570306E0,-7.766922E0,1.4704786E-1,1.2058831E-1,-4.6784678E-1,2.894739E-3,-5.008595E-4,3.2445834E0,1.4254571E-3,2.1964018E0,8.910602E-1,1.6287769E2,1.164007E0,-4.1225255E-3,1.1107266E-3,4.3372675E-3,-3.3754237E-5,1.6533813E-3,-2.8366202E-3,3.6520108E-3,-1.9130352E-3,-3.7560104E-3,4.7745564E-4],"split_indices":[2387,2411,4027,2412,2277,3262,3365,0,0,3875,0,4085,3349,2952,3272,0,0,0,0,0,0,0,0,0,0],"split_type":[0,0,0,0,0,0,0,0,0,0,0,0,0,0,0,0,0,0,0,0,0,0,0,0,0],"sum_hessian":[4.53E2,2.06E2,2.47E2,1.1E1,1.95E2,2.02E2,4.5E1,8E0,3E0,1.9E2,5E0,1.92E2,1E1,2.4E1,2.1E1,1.86E2,4E0,1.86E2,6E0,3E0,7E0,1.7E1,7E0,1.8E1,3E0],"tree_param":{"num_deleted":"0","num_feature":"5217","num_nodes":"25","size_leaf_vector":"0"}},{"base_weights":[2.438368E-2,-3.4260976E-1,2.9829687E-1,-3.6977038E-1,1.7807783E-1,-3.2371587E-1,3.5786888E-1,-3.8886932E-1,-1.1618027E-2,-4.6223673E-4,2.6935264E-3,5.099262E-4,-3.8287942E-3,-2.2657898E-3,3.8050672E-1,-4.0198797E-3,4.8756434E-4,-2.4679296E-3,2.4288343E-3,4.003028E-3,-1.0457484E-3],"categories":[],"categories_nodes":[],"categories_segments":[],"categories_sizes":[],"default_left":[true,true,true,false,false,false,false,true,false,false,false,false,false,false,true,false,false,false,false,false,false],"id":9,"left_children":[1,3,5,7,9,11,13,15,17,-1,-1,-1,-1,-1,19,-1,-1,-1,-1,-1,-1],"loss_changes":[5.1271355E1,3.4314137E0,1.1402584E1,1.3669891E0,3.7118834E-1,7.5154305E-1,4.0055084E0,1.2700539E0,1.2577384E0,0E0,0E0,0E0,0E0,0E0,2.7451897E0,0E0,0E0,0E0,0E0,0E0,0E0],"parents":[2147483647,0,0,1,1,2,2,3,3,4,4,5,5,6,6,7,7,8,8,14,14],"right_children":[2,4,6,8,10,12,14,16,18,-1,-1,-1,-1,-1,20,-1,-1,-1,-1,-1,-1],"split_conditions":[2.1E1,3.373494E0,6E0,6.678747E0,7.871383E-1,-4.0274394E-1,-1.1249012E0,4.8680077E0,-1.3108374E-1,-4.6223673E-4,2.6935264E-3,5.099262E-4,-3.8287942E-3,-2.2657898E-3,6.5104164E-2,-4.0198797E-3,4.8756434E-4,-2.4679296E-3,2.4288343E-3,4.003028E-3,-1.0457484E-3],"split_indices":[2748,2870,3502,2274,3302,2964,3863,2249,3209,0,0,0,0,0,4292,0,0,0,0,0,0],"split_type":[0,0,0,0,0,0,0,0,0,0,0,0,0,0,0,0,0,0,0,0,0],"sum_hessian":[5E2,2.13E2,2.87E2,2.04E2,9E0,2.3E1,2.64E2,1.93E2,1.1E1,3E0,6E0,3E0,2E1,8E0,2.56E2,1.88E2,5E0,6E0,5E0,2.47E2,9E0],"tree_param":{"num_deleted":"0","num_feature":"5217","num_nodes":"21","size_leaf_vector":"0"}},{"base_weights":[4.8478182E-2,-3.3361202E-1,3.0648565E-1,-1.0078234E-1,-4.0782645E-1,3.7291366E-1,-1.9353618E-1,1.1741046E-1,-3.200576E-1,5.197591E-4,-4.255524E-1,3.9458486E-1,-6.232601E-2,2.517527E-3,-3.1567246E-1,-2.831109E-3,3.140657E-3,-3.75953E-3,5.612531E-4,-4.3839104E-3,6.3828524E-4,4.051039E-3,-1.127266E-3,1.5990118E-3,-2.653141E-3,1.0145229E-3,-3.941469E-3],"categories":[],"categories_nodes":[],"categories_segments":[],"categories_sizes":[],"default_left":[false,false,true,false,false,true,true,true,true,false,true,true,true,false,true,false,false,false,false,false,false,false,false,false,false,false,false],"id":10,"left_children":[1,3,5,7,9,11,13,15,17,-1,19,21,23,-1,25,-1,-1,-1,-1,-1,-1,-1,-1,-1,-1,-1,-1],"loss_changes":[5.0588245E1,3.3204498E0,1.054273E1,2.9352794E0,1.4112663E0,2.721733E0,2.5247998E0,2.9681406E0,7.682915E-1,0E0,1.1198158E0,1.6450424E0,9.895226E-1,0E0,1.3094158E0,0E0,0E0,0E0,0E0,0E0,0E0,0E0,0E0,0E0,0E0,0E0,0E0],"parents":[2147483647,0,0,1,1,2,2,3,3,4,4,5,5,6,6,7,7,8,8,10,10,11,11,12,12,14,14],"right_children":[2,4,6,8,10,12,14,16,18,-1,20,22,24,-1,26,-1,-1,-1,-1,-1,-1,-1,-1,-1,-1,-1,-1],"split_conditions":[2.1E1,-8.730739E0,-4.0505543E0,-9.094646E0,-2.8558844E1,1.2058831E-1,-2.2158527E0,-5.8464162E-2,1E0,5.197591E-4,1E0,3.7010899E0,-4.3099475E0,2.517527E-3,-1.2408006E0,-2.831109E-3,3.140657E-3,-3.75953E-3,5.612531E-4,-4.3839104E-3,6.3828524E-4,4.051039E-3,-1.127266E-3,1.5990118E-3,-2.653141E-3,1.0145229E-3,-3.941469E-3],"split_indices":[2748,2335,4027,2318,3060,3262,3036,3228,2633,0,1678,3795,2354,0,2334,0,0,0,0,0,0,0,0,0,0,0,0],"split_type":[0,0,0,0,0,0,0,0,0,0,0,0,0,0,0,0,0,0,0,0,0,0,0,0,0,0,0],"sum_hessian":[5.03E2,2.02E2,3.01E2,5.2E1,1.5E2,2.67E2,3.4E1,2.7E1,2.5E1,5E0,1.45E2,2.55E2,1.2E1,6E0,2.8E1,8E0,1.9E1,2.2E1,3E0,1.42E2,3E0,2.51E2,4E0,6E0,6E0,4E0,2.4E1],"tree_param":{"num_deleted":"0","num_feature":"5217","num_nodes":"27","size_leaf_vector":"0"}},{"base_weights":[3.3834133E-2,-3.409599E-1,2.9184002E-1,-3.6748195E-1,2.082855E-3,-1.4142458E-1,3.6439922E-1,-3.8590497E-1,1.4340029E-3,-3.0614543E-1,1.7599036E-1,-1.2703189E-1,3.8854226E-1,-4.00187E-3,5.126731E-4,4.1156675E-4,-3.846952E-3,-1.7220341E-3,3.096969E-3,-2.8042498E-3,1.6995267E-3,4.073605E-3,-8.03529E-4],"categories":[],"categories_nodes":[],"categories_segments":[],"categories_sizes":[],"default_left":[false,false,true,true,false,true,false,true,false,false,true,true,true,false,false,false,false,false,false,false,false,false,false],"id":11,"left_children":[1,3,5,7,-1,9,11,13,-1,15,17,19,21,-1,-1,-1,-1,-1,-1,-1,-1,-1,-1],"loss_changes":[4.623128E1,3.239212E0,9.176739E0,2.0704002E0,0E0,2.5829427E0,3.1679115E0,1.2800713E0,0E0,9.5921326E-1,1.118408E0,9.32673E-1,2.2611275E0,0E0,0E0,0E0,0E0,0E0,0E0,0E0,0E0,0E0,0E0],"parents":[2147483647,0,0,1,1,2,2,3,3,5,5,6,6,7,7,9,9,10,10,11,11,12,12],"right_children":[2,4,6,8,-1,10,12,14,-1,16,18,20,22,-1,-1,-1,-1,-1,-1,-1,-1,-1,-1],"split_conditions":[4.1799664E1,1.3434454E0,8.910074E0,9.014952E0,2.082855E-3,3.050895E1,3.2998108E1,4.489925E0,1.4340029E-3,7.500167E0,-1.058424E0,-2.6625515E1,3.0734768E0,-4.00187E-3,5.126731E-4,4.1156675E-4,-3.846952E-3,-1.7220341E-3,3.096969E-3,-2.8042498E-3,1.6995267E-3,4.073605E-3,-8.03529E-4],"split_indices":[4105,3288,3704,2399,0,2570,4013,3799,0,2338,3863,2972,3122,0,0,0,0,0,0,0,0,0,0],"split_type":[0,0,0,0,0,0,0,0,0,0,0,0,0,0,0,0,0,0,0,0,0,0,0],"sum_hessian":[4.68E2,1.9E2,2.78E2,1.83E2,7E0,3.9E1,2.39E2,1.78E2,5E0,2.6E1,1.3E1,1E1,2.29E2,1.73E2,5E0,5E0,2.1E1,3E0,1E1,7E0,3E0,2.21E2,8E0],"tree_param":{"num_deleted":"0","num_feature":"5217","num_nodes":"23","size_leaf_vector":"0"}},{"base_weights":[4.417041E-2,3.179809E-1,-2.7228123E-1,-2.0771807E-1,3.6004904E-1,-3.616999E-1,-3.5521787E-2,-3.4727766E-3,1.9119555E-3,-2.0043065E-3,3.8056132E-1,1.8095322E-3,-3.775597E-1,1.5685728E-1,-3.2150343E-1,-6.6590874E-4,4.0544877E-3,-3.936716E-3,1.7419527E-3,-2.2280354E-3,3.490325E-3,-3.7788423E-3,5.722146E-4],"categories":[],"categories_nodes":[],"categories_segments":[],"categories_sizes":[],"default_left":[true,true,true,true,false,true,true,false,false,false,true,false,true,true,true,false,false,false,false,false,false,false,false],"id":12,"left_children":[1,3,5,7,9,11,13,-1,-1,-1,15,-1,17,19,21,-1,-1,-1,-1,-1,-1,-1,-1],"loss_changes":[4.3674717E1,6.360277E0,4.849985E0,1.6280591E0,3.2965698E0,1.8157406E0,4.119797E0,0E0,0E0,0E0,2.895359E0,0E0,1.8405361E0,3.684715E0,7.8076625E-1,0E0,0E0,0E0,0E0,0E0,0E0,0E0,0E0],"parents":[2147483647,0,0,1,1,2,2,3,3,4,4,5,5,6,6,10,10,12,12,13,13,14,14],"right_children":[2,4,6,8,10,12,14,-1,-1,-1,16,-1,18,20,22,-1,-1,-1,-1,-1,-1,-1,-1],"split_conditions":[-1.1527621E1,-5.3850044E-2,1.8161016E1,2.8747559E1,1.9131205E0,-9.836984E0,1.04277725E1,-3.4727766E-3,1.9119555E-3,-2.0043065E-3,-3.8306088E0,1.8095322E-3,2.828409E1,8.712385E-1,1.0257775E0,-6.6590874E-4,4.0544877E-3,-3.936716E-3,1.7419527E-3,-2.2280354E-3,3.490325E-3,-3.7788423E-3,5.722146E-4],"split_indices":[2221,3236,4087,4062,2883,2268,4314,0,0,0,2407,0,2589,3780,2280,0,0,0,0,0,0,0,0],"split_type":[0,0,0,0,0,0,0,0,0,0,0,0,0,0,0,0,0,0,0,0,0,0,0],"sum_hessian":[4.94E2,2.65E2,2.29E2,1.8E1,2.47E2,1.64E2,6.5E1,1.4E1,4E0,7E0,2.4E2,3E0,1.61E2,4E1,2.5E1,1.2E1,2.28E2,1.58E2,3E0,1.3E1,2.7E1,2.2E1,3E0],"tree_param":{"num_deleted":"0","num_feature":"5217","num_nodes":"23","size_leaf_vector":"0"}},{"base_weights":[3.167454E-2,-3.4442872E-1,2.85507E-1,-3.9525577E-1,-3.1731396E-3,3.447954E-1,-2.5238463E-1,-4.1027215E-1,1.0520536E-3,2.9866316E-3,-1.905576E-1,3.742174E-1,-1.7694788E-1,-3.565049E-1,2.122165E-3,-4.207368E-3,5.863699E-4,-3.2720785E-3,1.4069167E-3,3.8772624E-3,-2.128249E-3,-3.110747E-3,1.726323E-3,-3.812719E-3,-4.0696573E-4],"categories":[],"categories_nodes":[],"categories_segments":[],"categories_sizes":[],"default_left":[true,true,true,true,true,true,true,true,false,false,true,true,true,true,false,false,false,false,false,false,false,false,false,false,false],"id":13,"left_children":[1,3,5,7,9,11,13,15,-1,-1,17,19,21,23,-1,-1,-1,-1,-1,-1,-1,-1,-1,-1,-1],"loss_changes":[4.87922E1,3.5269566E0,1.0171022E1,1.5915279E0,2.0836542E0,4.6029625E0,1.9890647E0,1.01828E0,0E0,0E0,1.2899306E0,2.5236664E0,1.1263374E0,1.07047796E-1,0E0,0E0,0E0,0E0,0E0,0E0,0E0,0E0,0E0,0E0,0E0],"parents":[2147483647,0,0,1,1,2,2,3,3,4,4,5,5,6,6,7,7,10,10,11,11,12,12,13,13],"right_children":[2,4,6,8,10,12,14,16,-1,-1,18,20,22,24,-1,-1,-1,-1,-1,-1,-1,-1,-1,-1,-1],"split_conditions":[9.719411E0,9.175965E0,-1.1352704E0,9.1622E0,-1.1266634E1,3.7094016E0,5.975375E0,1E0,1.0520536E-3,2.9866316E-3,-6.0898555E-3,3.8111365E-1,5.4287906E0,1E0,2.122165E-3,-4.207368E-3,5.863699E-4,-3.2720785E-3,1.4069167E-3,3.8772624E-3,-2.128249E-3,-3.110747E-3,1.726323E-3,-3.812719E-3,-4.0696573E-4],"split_indices":[2421,2347,2395,4133,2221,2880,3825,1581,0,0,3264,3077,2562,87,0,0,0,0,0,0,0,0,0,0,0],"split_type":[0,0,0,0,0,0,0,0,0,0,0,0,0,0,0,0,0,0,0,0,0,0,0,0,0],"sum_hessian":[5.01E2,2.01E2,3E2,1.74E2,2.7E1,2.72E2,2.8E1,1.7E2,4E0,9E0,1.8E1,2.59E2,1.3E1,2.4E1,4E0,1.67E2,3E0,1.3E1,5E0,2.55E2,4E0,1E1,3E0,2.1E1,3E0],"tree_param":{"num_deleted":"0","num_feature":"5217","num_nodes":"25","size_leaf_vector":"0"}},{"base_weights":[3.4403782E-2,-3.2660854E-1,3.1393114E-1,-3.6598262E-1,1.453938E-2,-2.5533122E-1,3.7267706E-1,-3.8770014E-1,4.6115212E-2,-2.590874E-1,3.2646996E-3,2.055619E-3,-3.7418648E-3,-1.4176755E-1,3.968774E-1,-4.0197866E-3,-4.8369162E-5,-1.9126376E-3,2.4669867E-3,-2.8815535E-3,-3.3788892E-4,-2.8976814E-3,1.563381E-3,-1.7167884E-3,4.0784064E-3],"categories":[],"categories_nodes":[],"categories_segments":[],"categories_sizes":[],"default_left":[true,false,true,false,false,true,false,true,false,true,false,false,false,true,false,false,false,false,false,false,false,false,false,false,false],"id":14,"left_children":[1,3,5,7,9,11,13,15,17,19,-1,-1,-1,21,23,-1,-1,-1,-1,-1,-1,-1,-1,-1,-1],"loss_changes":[5.0160503E1,2.9765778E0,9.851227E0,1.8687496E0,2.7341785E0,1.9900625E0,3.4939651E0,9.664078E-1,9.080662E-1,3.0455709E-2,0E0,0E0,0E0,9.0164936E-1,1.907074E0,0E0,0E0,0E0,0E0,0E0,0E0,0E0,0E0,0E0,0E0],"parents":[2147483647,0,0,1,1,2,2,3,3,4,4,5,5,6,6,7,7,8,8,9,9,13,13,14,14],"right_children":[2,4,6,8,10,12,14,16,18,20,-1,-1,-1,22,24,-1,-1,-1,-1,-1,-1,-1,-1,-1,-1],"split_conditions":[2.1E1,3.9553E0,4.8354526E0,1E0,6.6387925E0,7.981373E-1,-6.866408E-3,1E0,9.100456E-1,3.21453E0,3.2646996E-3,2.055619E-3,-3.7418648E-3,1.0422335E0,-4.3477777E2,-4.0197866E-3,-4.8369162E-5,-1.9126376E-3,2.4669867E-3,-2.8815535E-3,-3.3788892E-4,-2.8976814E-3,1.563381E-3,-1.7167884E-3,4.0784064E-3],"split_indices":[2748,2636,4078,906,4132,3295,3146,1529,3341,2876,0,0,0,3339,3000,0,0,0,0,0,0,0,0,0,0],"split_type":[0,0,0,0,0,0,0,0,0,0,0,0,0,0,0,0,0,0,0,0,0,0,0,0,0],"sum_hessian":[4.87E2,2.12E2,2.75E2,1.9E2,2.2E1,2.4E1,2.51E2,1.81E2,9E0,1.2E1,1E1,4E0,2E1,1E1,2.41E2,1.74E2,7E0,4E0,5E0,9E0,3E0,7E0,3E0,3E0,2.38E2],"tree_param":{"num_deleted":"0","num_feature":"5217","num_nodes":"25","size_leaf_vector":"0"}},{"base_weights":[4.372486E-2,-3.219406E-1,3.0714583E-1,-3.8398755E-1,-5.7178322E-2,-2.884205E-1,3.4193465E-1,-3.9980876E-1,1.153146E-3,2.214505E-1,-2.2551222E-1,-3.9469614E-4,-3.1651454E-3,1.1563298E-2,3.8033357E-1,-4.1033756E-3,-5.2968913E-4,-1.6516439E-3,3.4413678E-3,-3.2360256E-3,9.975228E-4,-2.414225E-3,3.2311168E-3,-2.3736653E-4,4.084168E-3],"categories":[],"categories_nodes":[],"categories_segments":[],"categories_sizes":[],"default_left":[true,true,true,true,true,false,true,true,false,false,true,false,false,true,true,false,false,false,false,false,false,false,false,false,false],"id":15,"left_children":[1,3,5,7,9,11,13,15,-1,17,19,-1,-1,21,23,-1,-1,-1,-1,-1,-1,-1,-1,-1,-1],"loss_changes":[4.9425503E1,3.3780594E0,6.672735E0,1.6255913E0,2.4545305E0,3.482485E-2,3.5416183E0,4.6215057E-1,0E0,1.2507398E0,1.2047552E0,0E0,0E0,3.1568072E0,2.9692307E0,0E0,0E0,0E0,0E0,0E0,0E0,0E0,0E0,0E0,0E0],"parents":[2147483647,0,0,1,1,2,2,3,3,4,4,5,5,6,6,7,7,9,9,10,10,13,13,14,14],"right_children":[2,4,6,8,10,12,14,16,-1,18,20,-1,-1,22,24,-1,-1,-1,-1,-1,-1,-1,-1,-1,-1],"split_conditions":[2.1E1,1.723976E1,1.7745E0,6.6135063E0,-9.110284E0,1.9517017E1,2.7095383E2,2.8542671E0,1.153146E-3,-1.0012615E0,-1.5E0,-3.9469614E-4,-3.1651454E-3,-5.0740743E0,-1.8812559E0,-4.1033756E-3,-5.2968913E-4,-1.6516439E-3,3.4413678E-3,-3.2360256E-3,9.975228E-4,-2.414225E-3,3.2311168E-3,-2.3736653E-4,4.084168E-3],"split_indices":[2748,4087,2636,4084,2335,2560,3602,3025,0,2222,2979,0,0,2977,3031,0,0,0,0,0,0,0,0,0,0],"split_type":[0,0,0,0,0,0,0,0,0,0,0,0,0,0,0,0,0,0,0,0,0,0,0,0,0],"sum_hessian":[5.03E2,2.1E2,2.93E2,1.68E2,4.2E1,1.4E1,2.79E2,1.64E2,4E0,1.5E1,2.7E1,3E0,1.1E1,3E1,2.49E2,1.58E2,6E0,3E0,1.2E1,2.1E1,6E0,1.7E1,1.3E1,1.6E1,2.33E2],"tree_param":{"num_deleted":"0","num_feature":"5217","num_nodes":"25","size_leaf_vector":"0"}},{"base_weights":[9.38804E-4,-2.9300225E-1,3.0611253E-1,1.5302688E-1,-3.3084762E-1,-1.12553254E-1,3.6790103E-1,3.2539607E-3,-2.2375113E-3,-3.4811413E-1,1.2673627E-1,-2.920377E-1,1.5750018E-1,3.8825986E-1,-1.7520282E-3,-3.685666E-3,8.256726E-5,-4.1235538E-4,2.167466E-3,-3.5926022E-3,4.6042196E-4,-1.6675064E-3,2.9367914E-3,4.0172986E-3,-1.870724E-3],"categories":[],"categories_nodes":[],"categories_segments":[],"categories_sizes":[],"default_left":[true,false,true,false,true,true,false,false,false,true,true,true,true,false,false,false,false,false,false,false,false,false,false,false,false],"id":16,"left_children":[1,3,5,7,9,11,13,-1,-1,15,17,19,21,23,-1,-1,-1,-1,-1,-1,-1,-1,-1,-1,-1],"loss_changes":[4.4583687E1,4.5415993E0,6.544548E0,1.8679365E0,2.0994377E0,1.9398974E0,2.7276154E0,0E0,0E0,1.7130642E0,2.4366981E-1,6.367389E-1,1.0082033E0,2.0091782E0,0E0,0E0,0E0,0E0,0E0,0E0,0E0,0E0,0E0,0E0,0E0],"parents":[2147483647,0,0,1,1,2,2,3,3,4,4,5,5,6,6,9,9,10,10,11,11,12,12,13,13],"right_children":[2,4,6,8,10,12,14,-1,-1,16,18,20,22,24,-1,-1,-1,-1,-1,-1,-1,-1,-1,-1,-1],"split_conditions":[2.2E1,-6.579089E0,9.007162E0,-8.26096E0,2.5950136E0,2.4117006E1,2.1143146E0,3.2539607E-3,-2.2375113E-3,1.28983E1,-5.18677E-1,1.4146271E-1,-4.3691647E1,1.0681944E0,-1.7520282E-3,-3.685666E-3,8.256726E-5,-4.1235538E-4,2.167466E-3,-3.5926022E-3,4.6042196E-4,-1.6675064E-3,2.9367914E-3,4.0172986E-3,-1.870724E-3],"split_indices":[2748,2372,3704,2513,3710,2570,2405,0,0,2515,2251,2328,2988,3708,0,0,0,0,0,0,0,0,0,0,0],"split_type":[0,0,0,0,0,0,0,0,0,0,0,0,0,0,0,0,0,0,0,0,0,0,0,0,0],"sum_hessian":[4.87E2,2.48E2,2.39E2,1.8E1,2.3E2,3E1,2.09E2,1.3E1,5E0,2.23E2,7E0,1.8E1,1.2E1,2.03E2,6E0,2.11E2,1.2E1,3E0,4E0,1.5E1,3E0,3E0,9E0,2E2,3E0],"tree_param":{"num_deleted":"0","num_feature":"5217","num_nodes":"25","size_leaf_vector":"0"}},{"base_weights":[2.519546E-2,-3.154265E-1,2.7602383E-1,1.0614318E-1,-3.3777422E-1,-1.7754194E-1,3.3416995E-1,2.6476148E-3,-1.6579647E-3,1.15171246E-1,-3.5791284E-1,-3.3769017E-1,2.617797E-3,-1.8420611E-1,3.6446932E-1,-4.3116484E-4,2.0299852E-3,-3.7168984E-3,1.7704314E-3,-4.1191434E-4,-3.6103174E-3,1.49493E-3,-3.162463E-3,-7.35101E-4,3.8563677E-3],"categories":[],"categories_nodes":[],"categories_segments":[],"categories_sizes":[],"default_left":[true,true,false,true,false,false,true,false,false,true,true,false,false,false,true,false,false,false,false,false,false,false,false,false,false],"id":17,"left_children":[1,3,5,7,9,11,13,-1,-1,15,17,19,-1,21,23,-1,-1,-1,-1,-1,-1,-1,-1,-1,-1],"loss_changes":[4.1697773E1,2.1525955E0,7.7231503E0,8.3326364E-1,2.0364742E0,2.9120736E0,4.296036E0,0E0,0E0,2.2657491E-1,1.7561817E0,7.920146E-2,0E0,1.0021071E0,2.3887005E0,0E0,0E0,0E0,0E0,0E0,0E0,0E0,0E0,0E0,0E0],"parents":[2147483647,0,0,1,1,2,2,3,3,4,4,5,5,6,6,9,9,10,10,11,11,13,13,14,14],"right_children":[2,4,6,8,10,12,14,-1,-1,16,18,20,-1,22,24,-1,-1,-1,-1,-1,-1,-1,-1,-1,-1],"split_conditions":[9.202047E0,-9.73665E0,4.786207E1,7.801649E-1,-2.3739012E1,3.7021E0,8.120669E-1,2.6476148E-3,-1.6579647E-3,-3.0166686E-2,1E0,8.95063E-1,2.617797E-3,-2.1403742E1,3.6717658E0,-4.3116484E-4,2.0299852E-3,-3.7168984E-3,1.7704314E-3,-4.1191434E-4,-3.6103174E-3,1.49493E-3,-3.162463E-3,-7.35101E-4,3.8563677E-3],"split_indices":[2347,2268,3118,3710,3063,2636,3270,0,0,2964,2013,3306,0,2988,2302,0,0,0,0,0,0,0,0,0,0],"split_type":[0,0,0,0,0,0,0,0,0,0,0,0,0,0,0,0,0,0,0,0,0,0,0,0,0],"sum_hessian":[4.78E2,2.02E2,2.76E2,9E0,1.93E2,3E1,2.46E2,6E0,3E0,7E0,1.86E2,2.3E1,7E0,1.2E1,2.34E2,3E0,4E0,1.83E2,3E0,3E0,2E1,3E0,9E0,1E1,2.24E2],"tree_param":{"num_deleted":"0","num_feature":"5217","num_nodes":"25","size_leaf_vector":"0"}},{"base_weights":[3.325655E-2,-3.1428632E-1,2.7863568E-1,-3.7098917E-1,5.1446818E-2,-1.8429954E-1,3.4808823E-1,-3.8574222E-1,5.383208E-4,-2.8271112E-3,2.8264374E-1,-3.153388E-1,2.0145075E-3,-6.857104E-2,3.749091E-1,-3.9621564E-3,6.016973E-4,-4.7036947E-4,3.5621186E-3,-3.944167E-3,1.5590523E-3,-2.89831E-3,1.7292687E-3,-1.140728E-3,3.8632774E-3],"categories":[],"categories_nodes":[],"categories_segments":[],"categories_sizes":[],"default_left":[true,true,true,false,true,true,true,true,false,false,true,true,false,false,true,false,false,false,false,false,false,false,false,false,false],"id":18,"left_children":[1,3,5,7,9,11,13,15,-1,-1,17,19,-1,21,23,-1,-1,-1,-1,-1,-1,-1,-1,-1,-1],"loss_changes":[4.1198017E1,4.2750072E0,9.436165E0,1.2275467E0,2.7944705E0,2.3509521E0,2.9306145E0,9.420719E-1,0E0,0E0,6.240269E-1,1.5237885E0,0E0,1.277531E0,1.5541191E0,0E0,0E0,0E0,0E0,0E0,0E0,0E0,0E0,0E0,0E0],"parents":[2147483647,0,0,1,1,2,2,3,3,4,4,5,5,6,6,7,7,10,10,11,11,13,13,14,14],"right_children":[2,4,6,8,10,12,14,16,-1,-1,18,20,-1,22,24,-1,-1,-1,-1,-1,-1,-1,-1,-1,-1],"split_conditions":[2.1E1,1E0,9.007162E0,3.373494E0,2E0,1.4175473E-1,8.037129E0,1E0,5.383208E-4,-2.8271112E-3,-7.21455E0,1.4727273E0,2.0145075E-3,4.844324E0,-2.3281315E1,-3.9621564E-3,6.016973E-4,-4.7036947E-4,3.5621186E-3,-3.944167E-3,1.5590523E-3,-2.89831E-3,1.7292687E-3,-1.140728E-3,3.8632774E-3],"split_indices":[2748,4913,3704,2870,2674,2958,2332,4552,0,0,2320,2938,0,3983,3057,0,0,0,0,0,0,0,0,0,0],"split_type":[0,0,0,0,0,0,0,0,0,0,0,0,0,0,0,0,0,0,0,0,0,0,0,0,0],"sum_hessian":[4.73E2,1.95E2,2.78E2,1.69E2,2.6E1,3.5E1,2.43E2,1.64E2,5E0,1E1,1.6E1,2.7E1,8E0,1.4E1,2.29E2,1.61E2,3E0,3E0,1.3E1,2.4E1,3E0,7E0,7E0,4E0,2.25E2],"tree_param":{"num_deleted":"0","num_feature":"5217","num_nodes":"25","size_leaf_vector":"0"}},{"base_weights":[3.5718583E-2,2.8807536E-1,-2.9235825E-1,3.5139602E-1,-1.322628E-1,-3.1950983E-1,2.1606481E-3,3.715463E-1,-1.9640801E-3,-2.778965E-1,2.806007E-3,-3.4159786E-1,7.777902E-2,3.8605137E-3,-1.5089879E-3,8.9397747E-4,-3.4741946E-3,-3.6533864E-3,4.2307167E-4,-1.2515885E-3,2.5182734E-3],"categories":[],"categories_nodes":[],"categories_segments":[],"categories_sizes":[],"default_left":[true,true,false,true,true,true,false,false,false,true,false,true,true,false,false,false,false,false,false,false,false],"id":19,"left_children":[1,3,5,7,9,11,-1,13,-1,15,-1,17,19,-1,-1,-1,-1,-1,-1,-1,-1],"loss_changes":[4.2065266E1,7.893116E0,3.4063091E0,3.1530285E0,2.8548195E0,2.019598E0,0E0,2.1638489E0,0E0,1.0237622E0,0E0,1.9506569E0,7.0007396E-1,0E0,0E0,0E0,0E0,0E0,0E0,0E0,0E0],"parents":[2147483647,0,0,1,1,2,2,3,3,4,4,5,5,7,7,9,9,11,11,12,12],"right_children":[2,4,6,8,10,12,-1,14,-1,16,-1,18,20,-1,-1,-1,-1,-1,-1,-1,-1],"split_conditions":[-9.131167E0,-1.1449135E1,1E0,1.4393867E0,1.06367536E-1,1.647603E1,2.1606481E-3,1.2926309E0,-1.9640801E-3,-5.722784E0,2.806007E-3,5.4441544E1,1E0,3.8605137E-3,-1.5089879E-3,8.9397747E-4,-3.4741946E-3,-3.6533864E-3,4.2307167E-4,-1.2515885E-3,2.5182734E-3],"split_indices":[2335,2221,1137,4092,3059,4059,0,3351,0,2976,0,4070,4622,0,0,0,0,0,0,0,0],"split_type":[0,0,0,0,0,0,0,0,0,0,0,0,0,0,0,0,0,0,0,0,0],"sum_hessian":[4.98E2,2.82E2,2.16E2,2.46E2,3.6E1,2.07E2,9E0,2.39E2,7E0,2.8E1,8E0,1.97E2,1E1,2.34E2,5E0,4E0,2.4E1,1.86E2,1.1E1,5E0,5E0],"tree_param":{"num_deleted":"0","num_feature":"5217","num_nodes":"21","size_leaf_vector":"0"}},{"base_weights":[5.0326195E-2,3.050655E-1,-2.7383876E-1,-5.769977E-2,3.448242E-1,-3.56008E-1,-6.9646905E-3,-2.8651997E-1,2.0912862E-1,-4.6373177E-2,3.679756E-1,-3.6691365E-1,7.347323E-4,3.017921E-1,-2.2318958E-1,-3.663747E-4,-3.1567374E-3,2.9114117E-3,-5.2598794E-4,-2.8606073E-3,2.27092E-3,-2.722368E-4,3.8667251E-3,-3.7796476E-3,6.8166887E-4,3.6764997E-3,-5.543712E-4,-3.5830634E-3,7.8742695E-4],"categories":[],"categories_nodes":[],"categories_segments":[],"categories_sizes":[],"default_left":[false,true,true,true,true,true,true,false,true,false,true,true,false,true,true,false,false,false,false,false,false,false,false,false,false,false,false,false,false],"id":20,"left_children":[1,3,5,7,9,11,13,15,17,19,21,23,-1,25,27,-1,-1,-1,-1,-1,-1,-1,-1,-1,-1,-1,-1,-1,-1],"loss_changes":[4.030578E1,4.065691E0,4.666004E0,2.2000647E0,2.3545036E0,9.3227386E-1,4.067534E0,4.535675E-2,4.6532667E-1,1.5105393E0,1.817606E0,9.339123E-1,0E0,7.212875E-1,1.6376865E0,0E0,0E0,0E0,0E0,0E0,0E0,0E0,0E0,0E0,0E0,0E0,0E0,0E0,0E0],"parents":[2147483647,0,0,1,1,2,2,3,3,4,4,5,5,6,6,7,7,8,8,9,9,10,10,11,11,13,13,14,14],"right_children":[2,4,6,8,10,12,14,16,18,20,22,24,-1,26,28,-1,-1,-1,-1,-1,-1,-1,-1,-1,-1,-1,-1,-1,-1],"split_conditions":[-1.1266634E1,9.275927E0,1.794528E1,-3.3911112E-1,-1.7491658E-3,1E0,1.6E-1,3.2006237E-1,2.6448235E-1,9.954923E-1,-1.0497004E-1,1E0,7.347323E-4,2.28456E2,9.680811E-1,-3.663747E-4,-3.1567374E-3,2.9114117E-3,-5.2598794E-4,-2.8606073E-3,2.27092E-3,-2.722368E-4,3.8667251E-3,-3.7796476E-3,6.8166887E-4,3.6764997E-3,-5.543712E-4,-3.5830634E-3,7.8742695E-4],"split_indices":[2221,2347,4087,3107,3068,2162,4290,2445,3107,3339,3094,1975,0,3017,3362,0,0,0,0,0,0,0,0,0,0,0,0,0,0],"split_type":[0,0,0,0,0,0,0,0,0,0,0,0,0,0,0,0,0,0,0,0,0,0,0,0,0,0,0,0,0],"sum_hessian":[4.78E2,2.68E2,2.1E2,2.6E1,2.42E2,1.59E2,5.1E1,1.4E1,1.2E1,1.3E1,2.29E2,1.56E2,3E0,2E1,3.1E1,3E0,1.1E1,9E0,3E0,7E0,6E0,1E1,2.19E2,1.53E2,3E0,1.7E1,3E0,2.1E1,1E1],"tree_param":{"num_deleted":"0","num_feature":"5217","num_nodes":"29","size_leaf_vector":"0"}},{"base_weights":[1.4590869E-2,2.6774034E-1,-2.9933017E-1,-2.7833584E-1,3.2881773E-1,-3.3679524E-1,1.1685092E-1,-3.5600557E-3,8.093326E-4,-1.0960995E-1,3.569045E-1,-3.5406446E-1,1.0548856E-1,2.9761225E-3,-1.7366495E-3,2.0552862E-3,-3.1755886E-3,-4.6044556E-4,3.7905644E-3,-3.6744832E-3,1.0812714E-3,-3.724492E-4,1.9479168E-3],"categories":[],"categories_nodes":[],"categories_segments":[],"categories_sizes":[],"default_left":[true,true,true,false,true,true,true,false,false,false,true,true,true,false,false,false,false,false,false,false,false,false,false],"id":21,"left_children":[1,3,5,7,9,11,13,-1,-1,15,17,19,21,-1,-1,-1,-1,-1,-1,-1,-1,-1,-1],"loss_changes":[3.774796E1,9.234478E0,3.5243263E0,9.8079586E-1,3.1633835E0,1.7086315E0,1.3736136E0,0E0,0E0,1.5171294E0,2.137867E0,1.3999119E0,1.9224167E-1,0E0,0E0,0E0,0E0,0E0,0E0,0E0,0E0,0E0,0E0],"parents":[2147483647,0,0,1,1,2,2,3,3,4,4,5,5,6,6,9,9,10,10,11,11,12,12],"right_children":[2,4,6,8,10,12,14,-1,-1,16,18,20,22,-1,-1,-1,-1,-1,-1,-1,-1,-1,-1],"split_conditions":[-1.4685286E1,2.0893E0,2.032749E1,1E0,1.9303101E0,3.2445834E0,2.9606843E-1,-3.5600557E-3,8.093326E-4,3.8123944E0,-6.7133464E-2,3.874914E0,-2.361685E0,2.9761225E-3,-1.7366495E-3,2.0552862E-3,-3.1755886E-3,-4.6044556E-4,3.7905644E-3,-3.6744832E-3,1.0812714E-3,-3.724492E-4,1.9479168E-3],"split_indices":[2465,2636,4086,1366,2882,3796,3550,0,0,2322,3244,3700,2216,0,0,0,0,0,0,0,0,0,0],"split_type":[0,0,0,0,0,0,0,0,0,0,0,0,0,0,0,0,0,0,0,0,0,0,0],"sum_hessian":[4.65E2,2.58E2,2.07E2,2.4E1,2.34E2,1.91E2,1.6E1,2E1,4E0,1.3E1,2.21E2,1.85E2,6E0,1E1,6E0,5E0,8E0,1.1E1,2.1E2,1.81E2,4E0,3E0,3E0],"tree_param":{"num_deleted":"0","num_feature":"5217","num_nodes":"23","size_leaf_vector":"0"}},{"base_weights":[3.369487E-2,-2.9143977E-1,2.6586E-1,1.8019907E-1,-3.1715423E-1,-2.5087896E-1,3.2446402E-1,2.6909553E-3,-4.2158004E-4,-3.6612862E-1,-6.8093084E-2,-3.6447032E-3,5.636561E-2,-1.8541977E-1,3.4598145E-1,-3.8179823E-3,2.3397474E-4,-2.9421092E-3,1.7923311E-3,2.1877808E-3,-1.6937847E-3,-2.7192503E-3,3.6912318E-4,-3.6228303E-4,3.720896E-3],"categories":[],"categories_nodes":[],"categories_segments":[],"categories_sizes":[],"default_left":[true,true,true,false,true,false,true,false,false,true,true,false,true,true,true,false,false,false,false,false,false,false,false,false,false],"id":22,"left_children":[1,3,5,7,9,11,13,-1,-1,15,17,-1,19,21,23,-1,-1,-1,-1,-1,-1,-1,-1,-1,-1],"loss_changes":[3.8580223E1,2.882698E0,9.438692E0,3.5615107E-1,2.320238E0,1.2852392E0,3.2990913E0,0E0,0E0,1.1120319E0,2.5121543E0,0E0,6.668489E-1,3.429487E-1,2.705452E0,0E0,0E0,0E0,0E0,0E0,0E0,0E0,0E0,0E0,0E0],"parents":[2147483647,0,0,1,1,2,2,3,3,4,4,5,5,6,6,9,9,10,10,12,12,13,13,14,14],"right_children":[2,4,6,8,10,12,14,-1,-1,16,18,-1,20,22,24,-1,-1,-1,-1,-1,-1,-1,-1,-1,-1],"split_conditions":[2.1E1,-6.338654E0,5E0,8.7630534E-1,2E0,1.5086213E1,4.625054E0,2.6909553E-3,-4.2158004E-4,4.2161474E0,9.5502186E-1,-3.6447032E-3,7.750402E0,1.1628302E1,-1.7594062E-1,-3.8179823E-3,2.3397474E-4,-2.9421092E-3,1.7923311E-3,2.1877808E-3,-1.6937847E-3,-2.7192503E-3,3.6912318E-4,-3.6228303E-4,3.720896E-3],"split_indices":[2748,2372,3625,2220,2674,2737,3984,0,0,3034,3339,0,2915,2987,3184,0,0,0,0,0,0,0,0,0,0],"split_type":[0,0,0,0,0,0,0,0,0,0,0,0,0,0,0,0,0,0,0,0,0,0,0,0,0],"sum_hessian":[5.01E2,2.08E2,2.93E2,9E0,1.99E2,2.8E1,2.65E2,6E0,3E0,1.64E2,3.5E1,2E1,8E0,9E0,2.56E2,1.58E2,6E0,1.8E1,1.7E1,5E0,3E0,6E0,3E0,1.6E1,2.4E2],"tree_param":{"num_deleted":"0","num_feature":"5217","num_nodes":"25","size_leaf_vector":"0"}},{"base_weights":[2.7696315E-2,-2.6822433E-1,2.795183E-1,-3.1057456E-1,8.270743E-2,-3.0066594E-1,3.2379037E-1,-3.6078155E-2,-3.4430465E-1,-2.5325674E-3,2.5170892E-1,-2.7574855E-4,-3.3126592E-3,-9.316811E-2,3.4633833E-1,-1.9903188E-3,2.6936955E-3,-3.5766226E-3,1.0746892E-3,3.5887833E-3,-1.4763658E-3,1.8348844E-3,-2.251261E-3,-1.5796057E-3,3.6043457E-3],"categories":[],"categories_nodes":[],"categories_segments":[],"categories_sizes":[],"default_left":[true,true,true,true,true,false,false,false,true,false,false,false,false,true,false,false,false,false,false,false,false,false,false,false,false],"id":23,"left_children":[1,3,5,7,9,11,13,15,17,-1,19,-1,-1,21,23,-1,-1,-1,-1,-1,-1,-1,-1,-1,-1],"loss_changes":[3.808278E1,3.6438026E0,7.5783997E0,1.8534546E0,1.965155E0,1.0228753E-1,2.6216602E0,1.7044733E0,1.3456783E0,0E0,1.22759E0,0E0,0E0,8.3132374E-1,2.0607758E0,0E0,0E0,0E0,0E0,0E0,0E0,0E0,0E0,0E0,0E0],"parents":[2147483647,0,0,1,1,2,2,3,3,4,4,5,5,6,6,7,7,8,8,10,10,13,13,14,14],"right_children":[2,4,6,8,10,12,14,16,18,-1,20,-1,-1,22,24,-1,-1,-1,-1,-1,-1,-1,-1,-1,-1],"split_conditions":[9.72427E0,4.3263355E1,1.4844071E0,-5.680211E0,4.8769096E-1,3.55676E0,7.153542E1,8E0,1E0,-2.5325674E-3,3.7494306E-2,-2.7574855E-4,-3.3126592E-3,-1.8761652E0,1.4545455E0,-1.9903188E-3,2.6936955E-3,-3.5766226E-3,1.0746892E-3,3.5887833E-3,-1.4763658E-3,1.8348844E-3,-2.251261E-3,-1.5796057E-3,3.6043457E-3],"split_indices":[2347,2606,4106,2426,3999,2355,2839,3500,2013,0,3176,0,0,2300,2531,0,0,0,0,0,0,0,0,0,0],"split_type":[0,0,0,0,0,0,0,0,0,0,0,0,0,0,0,0,0,0,0,0,0,0,0,0,0],"sum_hessian":[5.01E2,2.3E2,2.71E2,2.06E2,2.4E1,1.7E1,2.54E2,2.4E1,1.82E2,7E0,1.7E1,3E0,1.4E1,1.2E1,2.42E2,1.7E1,7E0,1.78E2,4E0,1.4E1,3E0,3E0,9E0,5E0,2.37E2],"tree_param":{"num_deleted":"0","num_feature":"5217","num_nodes":"25","size_leaf_vector":"0"}},{"base_weights":[2.41447E-2,2.8236803E-1,-2.6891014E-1,-1.3867982E-1,3.199463E-1,6.9005065E-2,-3.2171717E-1,-3.3193794E-3,2.3150612E-3,3.3689192E-1,-2.1808217E-3,2.571357E-1,-2.8444428E-3,-3.3856353E-1,2.0154861E-3,3.5189514E-3,-1.1130576E-3,-1.0024519E-3,3.5383804E-3,1.2587562E-3,-3.5247284E-3],"categories":[],"categories_nodes":[],"categories_segments":[],"categories_sizes":[],"default_left":[true,true,true,true,false,true,true,false,false,true,false,false,false,true,false,false,false,false,false,false,false],"id":24,"left_children":[1,3,5,7,9,11,13,-1,-1,15,-1,17,-1,19,-1,-1,-1,-1,-1,-1,-1],"loss_changes":[3.6023273E1,4.2430058E0,4.115551E0,2.1112661E0,2.5126648E0,2.6237912E0,2.0650196E0,0E0,0E0,1.7597866E0,0E0,1.0667014E0,0E0,1.4719048E0,0E0,0E0,0E0,0E0,0E0,0E0,0E0],"parents":[2147483647,0,0,1,1,2,2,3,3,4,4,5,5,6,6,9,9,11,11,13,13],"right_children":[2,4,6,8,10,12,14,-1,-1,16,-1,18,-1,20,-1,-1,-1,-1,-1,-1,-1],"split_conditions":[-1.1527621E1,-6.7133464E-2,-5.514887E0,-1.1412245E-1,1.2726538E1,7.1944447E0,1.2670828E1,-3.3193794E-3,2.3150612E-3,2.5631359E0,-2.1808217E-3,-6.56603E-1,-2.8444428E-3,-7.73414E-1,2.0154861E-3,3.5189514E-3,-1.1130576E-3,-1.0024519E-3,3.5383804E-3,1.2587562E-3,-3.5247284E-3],"split_indices":[2221,3244,2372,2357,2389,4334,2332,0,0,3880,0,2250,0,2334,0,0,0,0,0,0,0],"split_type":[0,0,0,0,0,0,0,0,0,0,0,0,0,0,0,0,0,0,0,0,0],"sum_hessian":[4.66E2,2.48E2,2.18E2,1.9E1,2.29E2,2.9E1,1.89E2,1.3E1,6E0,2.24E2,5E0,2E1,9E0,1.85E2,4E0,2.18E2,6E0,4E0,1.6E1,4E0,1.81E2],"tree_param":{"num_deleted":"0","num_feature":"5217","num_nodes":"21","size_leaf_vector":"0"}},{"base_weights":[5.207846E-2,-2.7383152E-1,2.9795957E-1,-3.039353E-1,5.34229E-2,3.2838863E-1,-2.6886907E-1,-3.2644027E-1,4.6414874E-2,3.1702816E-3,-2.4331466E-3,3.462296E-1,-2.4159262E-3,-2.9808239E-3,-3.7202565E-4,-3.4508589E-3,1.1796118E-3,2.5915497E-3,-2.0080665E-3,3.6184057E-3,-8.7859854E-4],"categories":[],"categories_nodes":[],"categories_segments":[],"categories_sizes":[],"default_left":[false,true,true,false,true,true,true,true,true,false,false,true,false,false,false,false,false,false,false,false,false],"id":25,"left_children":[1,3,5,7,9,11,13,15,17,-1,-1,19,-1,-1,-1,-1,-1,-1,-1,-1,-1],"loss_changes":[3.983684E1,2.2144775E0,5.3286285E0,1.657032E0,2.1139345E0,3.184496E0,2.6076198E-2,1.7674694E0,1.1075379E0,0E0,0E0,1.9821415E0,0E0,0E0,0E0,0E0,0E0,0E0,0E0,0E0,0E0],"parents":[2147483647,0,0,1,1,2,2,3,3,4,4,5,5,6,6,7,7,8,8,11,11],"right_children":[2,4,6,8,10,12,14,16,18,-1,-1,20,-1,-1,-1,-1,-1,-1,-1,-1,-1],"split_conditions":[2.1E1,1.0940711E0,1.3480465E0,1.7794733E1,-7.8587246E-1,1.6885095E0,4.4734337E1,3.0963615E1,1.030402E0,3.1702816E-3,-2.4331466E-3,-2.3939884E0,-2.4159262E-3,-2.9808239E-3,-3.7202565E-4,-3.4508589E-3,1.1796118E-3,2.5915497E-3,-2.0080665E-3,3.6184057E-3,-8.7859854E-4],"split_indices":[2748,2328,2452,4086,2352,4092,2993,2600,3301,0,0,2512,0,0,0,0,0,0,0,0,0],"split_type":[0,0,0,0,0,0,0,0,0,0,0,0,0,0,0,0,0,0,0,0,0],"sum_hessian":[4.87E2,2.09E2,2.78E2,1.92E2,1.7E1,2.66E2,1.2E1,1.81E2,1.1E1,9E0,8E0,2.6E2,6E0,9E0,3E0,1.75E2,6E0,6E0,5E0,2.52E2,8E0],"tree_param":{"num_deleted":"0","num_feature":"5217","num_nodes":"21","size_leaf_vector":"0"}},{"base_weights":[3.7859194E-2,2.4213667E-1,-2.9312897E-1,3.2282937E-1,-9.379488E-2,-3.4409407E-1,1.862453E-3,-3.8628947E-2,3.5732824E-1,-2.849193E-1,1.1333236E-1,-3.5472596E-1,8.0405426E-4,1.9972669E-1,-2.4886256E-1,-3.2218124E-3,1.8708644E-3,-1.1940162E-3,3.7471668E-3,-3.500713E-3,1.4940732E-3,2.9391146E-3,-1.5843122E-3,-3.7563273E-3,-7.1766315E-4,-1.7569759E-3,3.3751472E-3,-2.839156E-3,-1.948066E-4],"categories":[],"categories_nodes":[],"categories_segments":[],"categories_sizes":[],"default_left":[false,false,true,true,true,true,true,true,true,true,false,true,false,true,true,false,false,false,false,false,false,false,false,false,false,false,false,false,false],"id":26,"left_children":[1,3,5,7,9,11,13,15,17,19,21,23,-1,25,27,-1,-1,-1,-1,-1,-1,-1,-1,-1,-1,-1,-1,-1,-1],"loss_changes":[3.5238316E1,8.90283E0,3.0292454E0,3.3555298E0,2.7913585E0,9.372902E-1,1.9303325E0,2.0429454E0,2.2304535E0,1.3002834E0,1.9639906E0,8.084049E-1,0E0,1.4507219E0,7.869518E-2,0E0,0E0,0E0,0E0,0E0,0E0,0E0,0E0,0E0,0E0,0E0,0E0,0E0,0E0],"parents":[2147483647,0,0,1,1,2,2,3,3,4,4,5,5,6,6,7,7,8,8,9,9,10,10,11,11,13,13,14,14],"right_children":[2,4,6,8,10,12,14,16,18,20,22,24,-1,26,28,-1,-1,-1,-1,-1,-1,-1,-1,-1,-1,-1,-1,-1,-1],"split_conditions":[-9.064147E0,2.5883436E-1,1.90231E1,1.9075777E1,2.5409253E0,1E0,6.1969316E-1,9.9539953E-1,3.1579636E1,5.2072815E1,2.1945462E-3,1E0,8.0405426E-4,-1.2479339E1,-5.17613E0,-3.2218124E-3,1.8708644E-3,-1.1940162E-3,3.7471668E-3,-3.500713E-3,1.4940732E-3,2.9391146E-3,-1.5843122E-3,-3.7563273E-3,-7.1766315E-4,-1.7569759E-3,3.3751472E-3,-2.839156E-3,-1.948066E-4],"split_indices":[2242,3992,4087,4035,2314,2210,3047,3367,4013,2970,2226,4926,0,2980,2495,0,0,0,0,0,0,0,0,0,0,0,0,0,0],"split_type":[0,0,0,0,0,0,0,0,0,0,0,0,0,0,0,0,0,0,0,0,0,0,0,0,0,0,0,0,0],"sum_hessian":[5.11E2,3.17E2,1.94E2,2.56E2,6.1E1,1.65E2,2.9E1,2.2E1,2.34E2,3.1E1,3E1,1.62E2,3E0,1.7E1,1.2E1,9E0,1.3E1,7E0,2.27E2,2.8E1,3E0,1.8E1,1.2E1,1.49E2,1.3E1,4E0,1.3E1,9E0,3E0],"tree_param":{"num_deleted":"0","num_feature":"5217","num_nodes":"29","size_leaf_vector":"0"}},{"base_weights":[2.4204705E-2,2.830928E-1,-2.4343705E-1,3.2971817E-1,-1.928841E-1,-3.4295043E-1,-3.0774226E-2,-9.354852E-2,3.6020395E-1,1.4610082E-3,-3.436427E-3,2.9459065E-2,-3.6390218E-1,1.2785065E-1,-3.0172727E-1,-2.7642867E-3,1.9925793E-3,-9.325201E-5,3.7722546E-3,-1.6854301E-3,2.222061E-3,-3.9176145E-3,-1.8283035E-4,2.6748541E-3,-2.0184822E-3,-3.564397E-3,7.2684756E-4],"categories":[],"categories_nodes":[],"categories_segments":[],"categories_sizes":[],"default_left":[true,true,true,false,true,false,true,true,true,false,false,true,true,true,false,false,false,false,false,false,false,false,false,false,false,false,false],"id":27,"left_children":[1,3,5,7,9,11,13,15,17,-1,-1,19,21,23,25,-1,-1,-1,-1,-1,-1,-1,-1,-1,-1,-1,-1],"loss_changes":[3.3676678E1,5.813242E0,4.967764E0,3.1242714E0,1.548409E0,1.3510723E0,3.7346196E0,1.3005414E0,1.3941364E0,0E0,0E0,6.887588E-1,1.406002E0,2.8085797E0,8.1343365E-1,0E0,0E0,0E0,0E0,0E0,0E0,0E0,0E0,0E0,0E0,0E0,0E0],"parents":[2147483647,0,0,1,1,2,2,3,3,4,4,5,5,6,6,7,7,8,8,11,11,12,12,13,13,14,14],"right_children":[2,4,6,8,10,12,14,16,18,-1,-1,20,22,24,26,-1,-1,-1,-1,-1,-1,-1,-1,-1,-1,-1,-1],"split_conditions":[-1.3255183E1,7.883432E0,2.1280107E2,1.761194E0,1.5399104E2,-2.8558844E1,-7.4453583E0,9.424378E0,-1.8812559E0,1.4610082E-3,-3.436427E-3,5.401763E0,1.8689138E0,-1.1257254E0,-3.312533E0,-2.7642867E-3,1.9925793E-3,-9.325201E-5,3.7722546E-3,-1.6854301E-3,2.222061E-3,-3.9176145E-3,-1.8283035E-4,2.6748541E-3,-2.0184822E-3,-3.564397E-3,7.2684756E-4],"split_indices":[2461,2912,2736,2864,2950,3060,2341,4075,3031,0,0,2351,3710,2333,2317,0,0,0,0,0,0,0,0,0,0,0,0],"split_type":[0,0,0,0,0,0,0,0,0,0,0,0,0,0,0,0,0,0,0,0,0,0,0,0,0,0,0],"sum_hessian":[4.76E2,2.42E2,2.34E2,2.22E2,2E1,1.57E2,7.7E1,1.4E1,2.08E2,6E0,1.4E1,8E0,1.49E2,5E1,2.7E1,9E0,5E0,9E0,1.99E2,4E0,4E0,1.37E2,1.2E1,3.6E1,1.4E1,2.4E1,3E0],"tree_param":{"num_deleted":"0","num_feature":"5217","num_nodes":"27","size_leaf_vector":"0"}},{"base_weights":[3.3177305E-2,2.7303734E-1,-2.9326236E-1,3.2016385E-1,-1.3320301E-1,3.2561203E-3,-3.3366865E-1,-8.3247654E-2,3.4276798E-1,-2.8707764E-1,1.302141E-1,2.607125E-1,-2.492756E-1,1.5937954E-2,-3.5107532E-1,-2.3586154E-3,1.723322E-3,3.5381801E-3,-1.8217538E-3,-3.1566238E-3,-2.7265374E-4,-1.4047788E-3,2.6475287E-3,2.9379139E-3,2.7379117E-4,-2.7718756E-3,-3.213242E-4,-1.6348049E-3,1.9761308E-3,7.303297E-4,-3.6141751E-3],"categories":[],"categories_nodes":[],"categories_segments":[],"categories_sizes":[],"default_left":[true,true,true,true,true,true,true,false,true,true,true,true,true,true,true,false,false,false,false,false,false,false,false,false,false,false,false,false,false,false,false],"id":28,"left_children":[1,3,5,7,9,11,13,15,17,19,21,23,25,27,29,-1,-1,-1,-1,-1,-1,-1,-1,-1,-1,-1,-1,-1,-1,-1,-1],"loss_changes":[3.7512455E1,5.515867E0,2.4706593E0,2.4391975E0,1.4996567E0,2.2115512E0,1.1507931E0,8.726712E-1,1.7141991E0,8.606064E-2,7.4466574E-1,5.887723E-2,2.7569652E-2,5.8868897E-1,9.1085815E-1,0E0,0E0,0E0,0E0,0E0,0E0,0E0,0E0,0E0,0E0,0E0,0E0,0E0,0E0,0E0,0E0],"parents":[2147483647,0,0,1,1,2,2,3,3,4,4,5,5,6,6,7,7,8,8,9,9,10,10,11,11,12,12,13,13,14,14],"right_children":[2,4,6,8,10,12,14,16,18,20,22,24,26,28,30,-1,-1,-1,-1,-1,-1,-1,-1,-1,-1,-1,-1,-1,-1,-1,-1],"split_conditions":[-4.5502543E0,-9.02901E0,-4.5625243E0,-1.0497004E-1,7.51157E-2,-2.351463E-3,1.0703809E-1,8.530908E0,1.2258507E0,3.6009308E2,7.9134184E-1,3.312738E1,1.1889834E0,5.9179063E0,-3.6518202E0,-2.3586154E-3,1.723322E-3,3.5381801E-3,-1.8217538E-3,-3.1566238E-3,-2.7265374E-4,-1.4047788E-3,2.6475287E-3,2.9379139E-3,2.7379117E-4,-2.7718756E-3,-3.213242E-4,-1.6348049E-3,1.9761308E-3,7.303297E-4,-3.6141751E-3],"split_indices":[4027,2242,2411,3094,2977,3066,3520,2218,3319,3004,3311,4135,3350,2578,2410,0,0,0,0,0,0,0,0,0,0,0,0,0,0,0,0],"split_type":[0,0,0,0,0,0,0,0,0,0,0,0,0,0,0,0,0,0,0,0,0,0,0,0,0,0,0,0,0,0,0],"sum_hessian":[4.69E2,2.71E2,1.98E2,2.44E2,2.7E1,2.4E1,1.74E2,1.2E1,2.32E2,1.7E1,1E1,1.2E1,1.2E1,8E0,1.66E2,8E0,4E0,2.29E2,3E0,1.4E1,3E0,3E0,7E0,9E0,3E0,9E0,3E0,4E0,4E0,3E0,1.63E2],"tree_param":{"num_deleted":"0","num_feature":"5217","num_nodes":"31","size_leaf_vector":"0"}},{"base_weights":[2.1197522E-2,-2.7441823E-1,2.2901617E-1,-3.3968216E-1,1.0149909E-2,-2.7154183E-1,2.710267E-1,-3.5574088E-1,1.3054473E-3,-2.4716593E-1,2.6951787E-1,-3.34154E-3,5.7855295E-4,2.971883E-1,-1.2921487E-1,6.6421286E-4,-3.7173408E-3,7.416184E-4,-3.154894E-3,-1.4943235E-3,3.6970894E-3,3.1319847E-3,-1.9558528E-3,-3.1162268E-3,1.9900426E-3],"categories":[],"categories_nodes":[],"categories_segments":[],"categories_sizes":[],"default_left":[true,false,true,true,false,false,true,true,false,true,false,false,false,true,true,false,false,false,false,false,false,false,false,false,false],"id":29,"left_children":[1,3,5,7,9,11,13,15,-1,17,19,-1,-1,21,23,-1,-1,-1,-1,-1,-1,-1,-1,-1,-1],"loss_changes":[3.0658318E1,3.8760328E0,6.529333E0,1.5233307E0,3.2051115E0,6.3989973E-1,3.0673752E0,1.2612667E0,0E0,6.680206E-1,1.3056617E0,0E0,0E0,2.3535118E0,1.5187279E0,0E0,0E0,0E0,0E0,0E0,0E0,0E0,0E0,0E0,0E0],"parents":[2147483647,0,0,1,1,2,2,3,3,4,4,5,5,6,6,7,7,9,9,10,10,13,13,14,14],"right_children":[2,4,6,8,10,12,14,16,-1,18,20,-1,-1,22,24,-1,-1,-1,-1,-1,-1,-1,-1,-1,-1],"split_conditions":[2.1E1,2E0,2.0584E0,1E0,1.0756592E0,1E0,-7.0487375E0,-9.633181E0,1.3054473E-3,1.3579832E1,-5.359397E-1,-3.34154E-3,5.7855295E-4,1.1596622E-1,1.086574E0,6.6421286E-4,-3.7173408E-3,7.416184E-4,-3.154894E-3,-1.4943235E-3,3.6970894E-3,3.1319847E-3,-1.9558528E-3,-3.1162268E-3,1.9900426E-3],"split_indices":[2748,2674,2636,2162,2945,4798,2341,2433,0,2888,2328,0,0,3208,3274,0,0,0,0,0,0,0,0,0,0],"split_type":[0,0,0,0,0,0,0,0,0,0,0,0,0,0,0,0,0,0,0,0,0,0,0,0,0],"sum_hessian":[4.89E2,2.01E2,2.88E2,1.63E2,3.8E1,2E1,2.68E2,1.59E2,4E0,1.9E1,1.9E1,1.7E1,3E0,2.53E2,1.5E1,5E0,1.54E2,3E0,1.6E1,3E0,1.6E1,2.47E2,6E0,1E1,5E0],"tree_param":{"num_deleted":"0","num_feature":"5217","num_nodes":"25","size_leaf_vector":"0"}},{"base_weights":[2.6431087E-2,2.5827074E-1,-2.4770041E-1,-2.4745281E-1,3.123857E-1,-2.9311067E-1,4.5612838E-2,1.6934566E-3,-3.5200971E-3,-1.1052892E-1,3.3096436E-1,-3.2994518E-1,1.1772794E-1,-2.1783625E-1,1.9855972E-1,-2.4654374E-3,1.3307203E-3,3.449058E-3,-1.0695473E-3,-3.460155E-3,7.390827E-4,2.8869992E-3,-1.4429456E-3,-2.0070854E-4,-2.5058142E-3,-1.9719794E-3,3.2565594E-3],"categories":[],"categories_nodes":[],"categories_segments":[],"categories_sizes":[],"default_left":[false,false,true,true,false,true,true,false,false,true,true,true,true,true,false,false,false,false,false,false,false,false,false,false,false,false,false],"id":30,"left_children":[1,3,5,7,9,11,13,-1,-1,15,17,19,21,23,25,-1,-1,-1,-1,-1,-1,-1,-1,-1,-1,-1,-1],"loss_changes":[3.2034645E1,7.86425E0,3.1683865E0,1.5801182E0,2.1613884E0,3.2571812E0,1.62462E0,0E0,0E0,6.3925433E-1,1.6734905E0,1.3622303E0,1.1186999E0,4.492575E-2,1.5914216E0,0E0,0E0,0E0,0E0,0E0,0E0,0E0,0E0,0E0,0E0,0E0,0E0],"parents":[2147483647,0,0,1,1,2,2,3,3,4,4,5,5,6,6,9,9,10,10,11,11,12,12,13,13,14,14],"right_children":[2,4,6,8,10,12,14,-1,-1,16,18,20,22,24,26,-1,-1,-1,-1,-1,-1,-1,-1,-1,-1,-1,-1],"split_conditions":[-1.01281185E1,8.910074E0,4.227942E1,-7.7385387E0,6.130139E-1,5.641779E0,5.8184237E0,1.6934566E-3,-3.5200971E-3,3.4839E2,1E0,9.72427E0,1.552063E2,-5.3401155E0,-1.11635014E-1,-2.4654374E-3,1.3307203E-3,3.449058E-3,-1.0695473E-3,-3.460155E-3,7.390827E-4,2.8869992E-3,-1.4429456E-3,-2.0070854E-4,-2.5058142E-3,-1.9719794E-3,3.2565594E-3],"split_indices":[2318,3704,2606,2484,2346,2439,2538,0,0,4028,246,2347,2949,3122,3863,0,0,0,0,0,0,0,0,0,0,0,0],"split_type":[0,0,0,0,0,0,0,0,0,0,0,0,0,0,0,0,0,0,0,0,0,0,0,0,0,0,0],"sum_hessian":[4.94E2,2.68E2,2.26E2,2.4E1,2.44E2,1.96E2,3E1,4E0,2E1,9E0,2.35E2,1.81E2,1.5E1,1E1,2E1,6E0,3E0,2.29E2,6E0,1.75E2,6E0,9E0,6E0,3E0,7E0,4E0,1.6E1],"tree_param":{"num_deleted":"0","num_feature":"5217","num_nodes":"27","size_leaf_vector":"0"}},{"base_weights":[1.8233253E-2,-2.429191E-1,2.761445E-1,-1.0266192E-2,-2.999739E-1,-2.2102393E-1,3.1243554E-1,2.4058522E-1,-2.541458E-1,2.0599007E-3,-3.142096E-1,-2.990989E-3,6.076594E-4,3.3027205E-1,-1.7559903E-3,-1.5209627E-3,3.2212622E-3,-3.3861026E-3,2.88916E-4,-3.27869E-3,1.2546341E-3,3.4616152E-3,-1.1843871E-3],"categories":[],"categories_nodes":[],"categories_segments":[],"categories_sizes":[],"default_left":[true,true,true,false,true,true,true,true,true,false,true,false,false,true,false,false,false,false,false,false,false,false,false],"id":31,"left_children":[1,3,5,7,9,11,13,15,17,-1,19,-1,-1,21,-1,-1,-1,-1,-1,-1,-1,-1,-1],"loss_changes":[3.1995169E1,3.0862322E0,4.6666355E0,3.488307E0,1.6957626E0,5.3272235E-1,2.2640362E0,1.1585244E0,7.731782E-1,0E0,1.3429737E0,0E0,0E0,1.7891884E0,0E0,0E0,0E0,0E0,0E0,0E0,0E0,0E0,0E0],"parents":[2147483647,0,0,1,1,2,2,3,3,4,4,5,5,6,6,7,7,8,8,10,10,13,13],"right_children":[2,4,6,8,10,12,14,16,18,-1,20,-1,-1,22,-1,-1,-1,-1,-1,-1,-1,-1,-1],"split_conditions":[2.2E1,-4.570306E0,2.6315546E0,-6.983019E0,-6.3023977E0,1.7198732E0,1.6429806E0,-2.782878E1,-1.8152299E0,2.0599007E-3,2.3972687E1,-2.990989E-3,6.076594E-4,1E0,-1.7559903E-3,-1.5209627E-3,3.2212622E-3,-3.3861026E-3,2.88916E-4,-3.27869E-3,1.2546341E-3,3.4616152E-3,-1.1843871E-3],"split_indices":[2748,4027,2223,2509,2400,2261,3980,3063,2368,0,4054,0,0,1024,0,0,0,0,0,0,0,0,0],"split_type":[0,0,0,0,0,0,0,0,0,0,0,0,0,0,0,0,0,0,0,0,0,0,0],"sum_hessian":[4.65E2,2.31E2,2.34E2,4.7E1,1.84E2,1.4E1,2.2E2,2.3E1,2.4E1,3E0,1.81E2,1.1E1,3E0,2.14E2,6E0,3E0,2E1,1.8E1,6E0,1.77E2,4E0,2.08E2,6E0],"tree_param":{"num_deleted":"0","num_feature":"5217","num_nodes":"23","size_leaf_vector":"0"}},{"base_weights":[4.1529804E-2,2.730564E-1,-2.6107958E-1,-1.4278434E-1,3.2576787E-1,1.1978377E-1,-2.8413814E-1,1.029088E-1,-3.4754344E-3,-1.6195273E-1,3.448612E-1,-1.7766686E-3,2.6445196E-3,1.170761E-1,-3.0530223E-1,2.8434268E-3,-2.106964E-3,3.9723556E-4,-2.523174E-3,3.5762608E-3,-1.8735989E-3,2.6370739E-3,-1.452145E-3,-3.2563459E-3,1.4566918E-3],"categories":[],"categories_nodes":[],"categories_segments":[],"categories_sizes":[],"default_left":[true,true,true,false,true,true,true,true,false,false,false,false,false,false,true,false,false,false,false,false,false,false,false,false,false],"id":32,"left_children":[1,3,5,7,9,11,13,15,-1,17,19,-1,-1,21,23,-1,-1,-1,-1,-1,-1,-1,-1,-1,-1],"loss_changes":[3.6019264E1,6.629469E0,2.145033E0,2.0143743E0,2.7187252E0,9.321065E-1,1.9977016E0,1.4448867E0,0E0,3.0829144E-1,2.0640697E0,0E0,0E0,7.4176025E-1,2.1165428E0,0E0,0E0,0E0,0E0,0E0,0E0,0E0,0E0,0E0,0E0],"parents":[2147483647,0,0,1,1,2,2,3,3,4,4,5,5,6,6,7,7,9,9,10,10,13,13,14,14],"right_children":[2,4,6,8,10,12,14,16,-1,18,20,-1,-1,22,24,-1,-1,-1,-1,-1,-1,-1,-1,-1,-1],"split_conditions":[-1.1266634E1,8.910074E0,-6.429433E0,-6.165686E0,-2.4052391E1,1.3163547E2,-9.73665E0,2.04605E0,-3.4754344E-3,1.8290447E1,-1.3491583E1,-1.7766686E-3,2.6445196E-3,1.0105937E1,3.2445834E0,2.8434268E-3,-2.106964E-3,3.9723556E-4,-2.523174E-3,3.5762608E-3,-1.8735989E-3,2.6370739E-3,-1.452145E-3,-3.2563459E-3,1.4566918E-3],"split_indices":[2221,3704,2372,3063,2986,3987,2268,2956,0,4063,2465,0,0,2533,3875,0,0,0,0,0,0,0,0,0,0],"split_type":[0,0,0,0,0,0,0,0,0,0,0,0,0,0,0,0,0,0,0,0,0,0,0,0,0],"sum_hessian":[5.04E2,2.86E2,2.18E2,3.1E1,2.55E2,1.1E1,2.07E2,1.5E1,1.6E1,8E0,2.47E2,3E0,8E0,9E0,1.98E2,1E1,5E0,3E0,5E0,2.43E2,4E0,6E0,3E0,1.91E2,7E0],"tree_param":{"num_deleted":"0","num_feature":"5217","num_nodes":"25","size_leaf_vector":"0"}},{"base_weights":[3.8360786E-2,2.731273E-1,-2.494215E-1,3.141245E-1,-1.5422653E-1,2.1274754E-1,-2.9373357E-1,6.141929E-3,3.3504662E-1,-2.5855306E-1,1.985479E-3,3.1198775E-3,-1.0384154E-3,-3.2093158E-1,1.2024496E-2,2.4167667E-3,-2.4218084E-3,-7.3886506E-4,3.4556584E-3,-3.196542E-3,5.0933065E-4,-3.3355807E-3,3.5097124E-4,-2.4155383E-3,2.8817635E-3],"categories":[],"categories_nodes":[],"categories_segments":[],"categories_sizes":[],"default_left":[true,true,true,false,false,true,true,true,true,true,false,false,false,true,true,false,false,false,false,false,false,false,false,false,false],"id":33,"left_children":[1,3,5,7,9,11,13,15,17,19,-1,-1,-1,21,23,-1,-1,-1,-1,-1,-1,-1,-1,-1,-1],"loss_changes":[3.4866993E1,5.2339897E0,5.0718355E0,1.6373825E0,1.293181E0,9.054235E-1,1.829813E0,1.5793471E0,1.2044373E0,5.6211567E-1,0E0,0E0,0E0,9.739723E-1,1.8932877E0,0E0,0E0,0E0,0E0,0E0,0E0,0E0,0E0,0E0,0E0],"parents":[2147483647,0,0,1,1,2,2,3,3,4,4,5,5,6,6,7,7,8,8,9,9,13,13,14,14],"right_children":[2,4,6,8,10,12,14,16,18,20,-1,-1,-1,22,24,-1,-1,-1,-1,-1,-1,-1,-1,-1,-1],"split_conditions":[-9.801806E0,2.587039E-1,-8.876147E0,8.901281E-1,1.1934564E0,1E0,1.0100765E-1,6.054944E0,-2.3281315E1,8.466014E0,1.985479E-3,3.1198775E-3,-1.0384154E-3,1E0,2.9666E0,2.4167667E-3,-2.4218084E-3,-7.3886506E-4,3.4556584E-3,-3.196542E-3,5.0933065E-4,-3.3355807E-3,3.5097124E-4,-2.4155383E-3,2.8817635E-3],"split_indices":[2242,3998,2316,3283,3270,90,3182,2422,3057,2359,0,0,0,696,2636,0,0,0,0,0,0,0,0,0,0],"split_type":[0,0,0,0,0,0,0,0,0,0,0,0,0,0,0,0,0,0,0,0,0,0,0,0,0],"sum_hessian":[5.06E2,2.79E2,2.27E2,2.56E2,2.3E1,1.8E1,2.09E2,1.7E1,2.39E2,1.9E1,4E0,1.4E1,4E0,1.92E2,1.7E1,9E0,8E0,5E0,2.34E2,1.6E1,3E0,1.86E2,6E0,9E0,8E0],"tree_param":{"num_deleted":"0","num_feature":"5217","num_nodes":"25","size_leaf_vector":"0"}},{"base_weights":[4.9408797E-2,-2.0058125E-1,2.898871E-1,-3.0766737E-1,7.967887E-3,-2.144626E-1,3.1339106E-1,6.053109E-2,-3.2701832E-1,-1.68127E-1,2.713565E-1,-1.9646931E-4,-2.495728E-3,-1.974177E-3,3.2648867E-1,2.131629E-3,-1.3651163E-3,-3.382347E-3,7.657748E-4,1.2640081E-3,-2.9687502E-3,3.5305102E-3,-1.6783258E-3,3.4101212E-3,-8.200192E-4],"categories":[],"categories_nodes":[],"categories_segments":[],"categories_sizes":[],"default_left":[true,true,true,false,true,false,false,true,true,false,true,false,false,false,true,false,false,false,false,false,false,false,false,false,false],"id":34,"left_children":[1,3,5,7,9,11,13,15,17,19,21,-1,-1,-1,23,-1,-1,-1,-1,-1,-1,-1,-1,-1,-1],"loss_changes":[2.975708E1,5.469079E0,3.333208E0,1.2727461E0,4.2736154E0,4.4321597E-2,1.9609394E0,5.1406115E-1,8.528137E-1,2.290267E0,1.6423247E0,0E0,0E0,0E0,1.5836353E0,0E0,0E0,0E0,0E0,0E0,0E0,0E0,0E0,0E0,0E0],"parents":[2147483647,0,0,1,1,2,2,3,3,4,4,5,5,6,6,7,7,8,8,9,9,10,10,14,14],"right_children":[2,4,6,8,10,12,14,16,18,20,22,-1,-1,-1,24,-1,-1,-1,-1,-1,-1,-1,-1,-1,-1],"split_conditions":[2.2E1,1.7030176E1,1.0320705E1,-2.3739012E1,1.5194857E0,2.4265469E1,1E0,6.5610653E-1,3.2445834E0,-6.965428E-3,-7.106992E0,-1.9646931E-4,-2.495728E-3,-1.974177E-3,-3.8579413E-1,2.131629E-3,-1.3651163E-3,-3.382347E-3,7.657748E-4,1.2640081E-3,-2.9687502E-3,3.5305102E-3,-1.6783258E-3,3.4101212E-3,-8.200192E-4],"split_indices":[2748,4087,2387,3063,2968,2581,3509,2988,3875,3129,2341,0,0,0,3365,0,0,0,0,0,0,0,0,0,0],"split_type":[0,0,0,0,0,0,0,0,0,0,0,0,0,0,0,0,0,0,0,0,0,0,0,0,0],"sum_hessian":[4.85E2,2.38E2,2.47E2,1.56E2,8.2E1,9E0,2.38E2,7E0,1.49E2,5E1,3.2E1,3E0,6E0,4E0,2.34E2,4E0,3E0,1.46E2,3E0,1.5E1,3.5E1,2.8E1,4E0,2.27E2,7E0],"tree_param":{"num_deleted":"0","num_feature":"5217","num_nodes":"25","size_leaf_vector":"0"}},{"base_weights":[3.1280804E-2,2.3428711E-1,-2.4955529E-1,-3.2561389E-3,2.8163543E-1,-2.8968748E-1,1.8326942E-2,-4.8334002E-2,3.1191832E-1,2.5771204E-2,-3.209076E-1,2.3146828E-1,-1.6242492E-1,-2.6217683E-3,2.0346588E-3,-1.8640853E-3,3.221079E-3,2.3067594E-3,-2.1568898E-3,-2.0582278E-4,-3.4463396E-3,3.0563548E-3,-3.049202E-4,1.8449929E-3,-2.8379369E-3],"categories":[],"categories_nodes":[],"categories_segments":[],"categories_sizes":[],"default_left":[true,false,true,false,false,true,true,true,false,false,false,false,false,false,false,false,false,false,false,false,false,false,false,false,false],"id":35,"left_children":[1,3,5,-1,7,9,11,13,15,17,19,21,23,-1,-1,-1,-1,-1,-1,-1,-1,-1,-1,-1,-1],"loss_changes":[2.879656E1,8.221661E0,2.3328304E0,0E0,2.829668E0,1.8928633E0,1.4277078E0,1.7264227E0,1.5883045E0,1.289273E0,1.1322441E0,4.0440226E-1,1.1138436E0,0E0,0E0,0E0,0E0,0E0,0E0,0E0,0E0,0E0,0E0,0E0,0E0],"parents":[2147483647,0,0,1,1,2,2,4,4,5,5,6,6,7,7,8,8,9,9,10,10,11,11,12,12],"right_children":[2,4,6,-1,8,10,12,14,16,18,20,22,24,-1,-1,-1,-1,-1,-1,-1,-1,-1,-1,-1,-1],"split_conditions":[-1.01281185E1,1.453194E0,8.065929E-1,-3.2561389E-3,-7.0270393E-3,5.73161E-1,-8.637716E0,6.591011E-1,2.2546444E0,-1.0876159E-2,6.915646E-1,3.9308816E-2,-4.9589443E0,-2.6217683E-3,2.0346588E-3,-1.8640853E-3,3.221079E-3,2.3067594E-3,-2.1568898E-3,-2.0582278E-4,-3.4463396E-3,3.0563548E-3,-3.049202E-4,1.8449929E-3,-2.8379369E-3],"split_indices":[2318,4106,3787,0,3146,3292,3063,2430,3534,2963,3312,2964,2297,0,0,0,0,0,0,0,0,0,0,0,0],"split_type":[0,0,0,0,0,0,0,0,0,0,0,0,0,0,0,0,0,0,0,0,0,0,0,0,0],"sum_hessian":[4.95E2,2.88E2,2.07E2,2E1,2.68E2,1.8E2,2.7E1,2.2E1,2.46E2,1.6E1,1.64E2,1.2E1,1.5E1,1.2E1,1E1,3E0,2.43E2,9E0,7E0,1.3E1,1.51E2,9E0,3E0,3E0,1.2E1],"tree_param":{"num_deleted":"0","num_feature":"5217","num_nodes":"25","size_leaf_vector":"0"}},{"base_weights":[3.0861747E-2,-2.4770103E-1,2.3035367E-1,-2.9213586E-1,2.8103042E-2,-2.6230082E-1,2.7178422E-1,-3.1129545E-1,8.629498E-2,-1.9303715E-1,2.8588474E-1,-3.2134647E-3,4.4132117E-4,-2.038978E-1,2.9931512E-1,-7.042363E-5,-3.3626328E-3,2.3804784E-3,-1.2586135E-3,-2.6957965E-3,7.7763875E-4,3.14045E-3,4.5426274E-4,-2.8060935E-3,4.528353E-4,-8.1582693E-4,3.1913705E-3],"categories":[],"categories_nodes":[],"categories_segments":[],"categories_sizes":[],"default_left":[true,true,false,true,true,false,false,false,true,true,false,false,false,true,true,false,false,false,false,false,false,false,false,false,false,false,false],"id":36,"left_children":[1,3,5,7,9,11,13,15,17,19,21,-1,-1,23,25,-1,-1,-1,-1,-1,-1,-1,-1,-1,-1,-1,-1],"loss_changes":[2.6624224E1,2.5185137E0,6.0520477E0,1.4111643E0,2.1094053E0,5.3287506E-1,3.7196445E0,1.2148533E0,5.4736775E-1,5.3855515E-1,7.836819E-3,0E0,0E0,4.120239E-1,2.0263653E0,0E0,0E0,0E0,0E0,0E0,0E0,0E0,0E0,0E0,0E0,0E0,0E0],"parents":[2147483647,0,0,1,1,2,2,3,3,4,4,5,5,6,6,7,7,8,8,9,9,10,10,13,13,14,14],"right_children":[2,4,6,8,10,12,14,16,18,20,22,-1,-1,24,26,-1,-1,-1,-1,-1,-1,-1,-1,-1,-1,-1,-1],"split_conditions":[4.143163E1,1E0,2.5666845E-1,2.4415865E1,8.181E1,1.5434216E1,-1.3557169E-1,-2.061996E0,1.6693953E2,4.1003404E0,5.8128314E0,-3.2134647E-3,4.4132117E-4,-1.9032335E1,8.815824E0,-7.042363E-5,-3.3626328E-3,2.3804784E-3,-1.2586135E-3,-2.6957965E-3,7.7763875E-4,3.14045E-3,4.5426274E-4,-2.8060935E-3,4.528353E-4,-8.1582693E-4,3.1913705E-3],"split_indices":[4105,4218,3550,4039,2637,2332,3969,2475,2947,4079,2308,0,0,2279,2394,0,0,0,0,0,0,0,0,0,0,0,0],"split_type":[0,0,0,0,0,0,0,0,0,0,0,0,0,0,0,0,0,0,0,0,0,0,0,0,0,0,0],"sum_hessian":[4.69E2,1.95E2,2.74E2,1.68E2,2.7E1,1.9E1,2.55E2,1.61E2,7E0,1.5E1,1.2E1,1.6E1,3E0,1.2E1,2.43E2,1.3E1,1.48E2,4E0,3E0,1.2E1,3E0,9E0,3E0,9E0,3E0,1.1E1,2.32E2],"tree_param":{"num_deleted":"0","num_feature":"5217","num_nodes":"27","size_leaf_vector":"0"}},{"base_weights":[3.8503855E-2,-2.4512643E-1,2.3903733E-1,-2.8269497E-1,2.6665612E-3,-1.8142101E-1,3.130018E-1,2.0434458E-3,-3.0491453E-1,1.5541945E-3,-2.557323E-1,-4.137379E-2,3.4298223E-1,-3.2919336E-3,4.3601257E-4,-3.0570393E-3,3.2037366E-4,-2.6465252E-3,1.8953844E-3,-1.3457922E-3,3.55234E-3],"categories":[],"categories_nodes":[],"categories_segments":[],"categories_sizes":[],"default_left":[true,true,false,true,false,true,false,false,true,false,true,true,false,false,false,false,false,false,false,false,false],"id":37,"left_children":[1,3,5,7,-1,9,11,-1,13,-1,15,17,19,-1,-1,-1,-1,-1,-1,-1,-1],"loss_changes":[2.730911E1,4.2046766E0,9.035898E0,2.3560944E0,0E0,1.3351574E0,2.6615753E0,0E0,1.6403275E0,0E0,6.3716865E-1,1.4441499E0,1.5658684E0,0E0,0E0,0E0,0E0,0E0,0E0,0E0,0E0],"parents":[2147483647,0,0,1,1,2,2,3,3,5,5,6,6,8,8,10,10,11,11,12,12],"right_children":[2,4,6,8,-1,10,12,-1,14,-1,16,18,20,-1,-1,-1,-1,-1,-1,-1,-1],"split_conditions":[5.2184982E1,1E0,3.7304072E0,-1.4353123E1,2.6665612E-3,-1.6227393E0,8.815824E0,2.0434458E-3,1.972796E0,1.5541945E-3,3.8773715E-1,1.485448E-1,-2.0944862E-1,-3.2919336E-3,4.3601257E-4,-3.0570393E-3,3.2037366E-4,-2.6465252E-3,1.8953844E-3,-1.3457922E-3,3.55234E-3],"split_indices":[2581,758,2455,2291,0,2489,2394,0,3861,0,3520,2539,3165,0,0,0,0,0,0,0,0],"split_type":[0,0,0,0,0,0,0,0,0,0,0,0,0,0,0,0,0,0,0,0,0],"sum_hessian":[4.7E2,1.94E2,2.76E2,1.83E2,1.1E1,4E1,2.36E2,6E0,1.77E2,6E0,3.4E1,1.8E1,2.18E2,1.66E2,1.1E1,2.9E1,5E0,9E0,9E0,4E0,2.14E2],"tree_param":{"num_deleted":"0","num_feature":"5217","num_nodes":"21","size_leaf_vector":"0"}},{"base_weights":[9.601985E-3,2.3220186E-1,-2.5958762E-1,-1.24899335E-1,2.857364E-1,-3.43358E-2,-3.2121488E-1,9.721135E-2,-3.1454884E-3,-1.5826935E-1,3.0823177E-1,-2.1304062E-1,2.2586633E-1,6.932628E-4,-3.3025542E-1,2.6570095E-3,-2.2782667E-3,-2.9350237E-3,1.3099856E-3,-2.1514487E-3,3.2457924E-3,-2.7200028E-3,1.5081838E-3,-1.4831421E-3,3.1514417E-3,-3.3952305E-3,6.754189E-4],"categories":[],"categories_nodes":[],"categories_segments":[],"categories_sizes":[],"default_left":[true,true,true,false,true,false,true,true,false,true,true,true,false,false,true,false,false,false,false,false,false,false,false,false,false,false,false],"id":38,"left_children":[1,3,5,7,9,11,13,15,-1,17,19,21,23,-1,25,-1,-1,-1,-1,-1,-1,-1,-1,-1,-1,-1,-1],"loss_changes":[3.0858648E1,5.5855913E0,3.1437244E0,1.8595496E0,2.7259693E0,2.8432765E0,7.8315735E-1,1.5112982E0,0E0,7.9527116E-1,2.387844E0,9.895396E-1,1.0855356E0,0E0,8.0176735E-1,0E0,0E0,0E0,0E0,0E0,0E0,0E0,0E0,0E0,0E0,0E0,0E0],"parents":[2147483647,0,0,1,1,2,2,3,3,4,4,5,5,6,6,7,7,9,9,10,10,11,11,12,12,14,14],"right_children":[2,4,6,8,10,12,14,16,-1,18,20,22,24,-1,26,-1,-1,-1,-1,-1,-1,-1,-1,-1,-1,-1,-1],"split_conditions":[-1.1266634E1,9.175965E0,-6.988749E0,1.4953561E1,8.3017474E-1,3.1701E0,-3.6007202E1,5.499624E1,-3.1454884E-3,4.305216E0,1.5193E0,2.5950136E0,6.3E1,6.932628E-4,8.560078E0,2.6570095E-3,-2.2782667E-3,-2.9350237E-3,1.3099856E-3,-2.1514487E-3,3.2457924E-3,-2.7200028E-3,1.5081838E-3,-1.4831421E-3,3.1514417E-3,-3.3952305E-3,6.754189E-4],"split_indices":[2221,2347,2428,2560,3283,2636,3060,4017,0,2568,2636,3710,4117,0,2364,0,0,0,0,0,0,0,0,0,0,0,0],"split_type":[0,0,0,0,0,0,0,0,0,0,0,0,0,0,0,0,0,0,0,0,0,0,0,0,0,0,0],"sum_hessian":[5.05E2,2.77E2,2.28E2,3.5E1,2.42E2,5.1E1,1.77E2,1.7E1,1.8E1,1E1,2.32E2,3.1E1,2E1,3E0,1.74E2,1.2E1,5E0,7E0,3E0,5E0,2.27E2,2.8E1,3E0,3E0,1.7E1,1.71E2,3E0],"tree_param":{"num_deleted":"0","num_feature":"5217","num_nodes":"27","size_leaf_vector":"0"}},{"base_weights":[1.969834E-2,2.7115765E-1,-2.274376E-1,-1.962688E-1,3.0662423E-1,-2.8391814E-1,6.924184E-2,-3.0377253E-3,1.2890667E-3,3.2446662E-1,-1.22070804E-1,-3.0529574E-1,2.6343312E-2,-1.3230248E-1,3.1893898E-3,-8.2868745E-4,3.4121135E-3,3.7164838E-4,-2.069076E-3,-3.1425562E-3,7.685178E-4,2.1132124E-3,-1.9880186E-3,-2.9147011E-3,1.3127674E-3],"categories":[],"categories_nodes":[],"categories_segments":[],"categories_sizes":[],"default_left":[true,true,true,false,true,true,false,false,false,true,true,true,true,false,false,false,false,false,false,false,false,false,false,false,false],"id":39,"left_children":[1,3,5,7,9,11,13,-1,-1,15,17,19,21,23,-1,-1,-1,-1,-1,-1,-1,-1,-1,-1,-1],"loss_changes":[2.8712826E1,4.108305E0,4.0240555E0,8.7747216E-1,1.8628044E0,1.3747377E0,2.2929726E0,0E0,0E0,1.5859222E0,2.175312E-1,7.77935E-1,9.193044E-1,1.298121E0,0E0,0E0,0E0,0E0,0E0,0E0,0E0,0E0,0E0,0E0,0E0],"parents":[2147483647,0,0,1,1,2,2,3,3,4,4,5,5,6,6,9,9,10,10,11,11,12,12,13,13],"right_children":[2,4,6,8,10,12,14,-1,-1,16,18,20,22,24,-1,-1,-1,-1,-1,-1,-1,-1,-1,-1,-1],"split_conditions":[-1.3255183E1,-1.0378592E-2,9.014952E0,2.9067268E1,-8.577302E0,5.4441544E1,-6.4188816E-2,-3.0377253E-3,1.2890667E-3,8.620871E0,1.2847482E0,4.52015E0,1.0413725E0,1.497805E1,3.1893898E-3,-8.2868745E-4,3.4121135E-3,3.7164838E-4,-2.069076E-3,-3.1425562E-3,7.685178E-4,2.1132124E-3,-1.9880186E-3,-2.9147011E-3,1.3127674E-3],"split_indices":[2461,3146,2399,4051,2259,2606,3085,0,0,2478,2956,3709,3319,2350,0,0,0,0,0,0,0,0,0,0,0],"split_type":[0,0,0,0,0,0,0,0,0,0,0,0,0,0,0,0,0,0,0,0,0,0,0,0,0],"sum_hessian":[4.52E2,2.24E2,2.28E2,1.4E1,2.1E2,1.92E2,3.6E1,1.1E1,3E0,2.03E2,7E0,1.8E2,1.2E1,2.1E1,1.5E1,7E0,1.96E2,3E0,4E0,1.77E2,3E0,7E0,5E0,1.3E1,8E0],"tree_param":{"num_deleted":"0","num_feature":"5217","num_nodes":"25","size_leaf_vector":"0"}},{"base_weights":[-2.0070086E-4,2.0749655E-1,-2.4859256E-1,2.877373E-1,-1.4780858E-1,1.3552015E-2,-2.7897042E-1,3.0587503E-1,-1.9176966E-3,-3.0678025E-1,1.62715E-1,3.2743623E-3,-2.1603426E-1,-3.4141544E-2,-3.1165206E-1,3.202738E-3,-1.4231596E-3,-3.6868064E-3,7.951021E-4,2.9789647E-3,-1.2493285E-3,-2.5176667E-3,-0E0,-2.226704E-3,2.219441E-3,9.050629E-4,-3.2400158E-3],"categories":[],"categories_nodes":[],"categories_segments":[],"categories_sizes":[],"default_left":[true,true,false,true,true,true,true,false,false,true,true,false,true,true,true,false,false,false,false,false,false,false,false,false,false,false,false],"id":40,"left_children":[1,3,5,7,9,11,13,15,-1,17,19,-1,21,23,25,-1,-1,-1,-1,-1,-1,-1,-1,-1,-1,-1,-1],"loss_changes":[2.5696041E1,7.952841E0,1.8531351E0,2.2441692E0,2.8803113E0,2.3826058E0,1.544508E0,1.6460819E0,0E0,1.0602129E0,1.0199593E0,0E0,1.2743807E-1,1.6955608E0,1.0589676E0,0E0,0E0,0E0,0E0,0E0,0E0,0E0,0E0,0E0,0E0,0E0,0E0],"parents":[2147483647,0,0,1,1,2,2,3,3,4,4,5,5,6,6,7,7,9,9,10,10,12,12,13,13,14,14],"right_children":[2,4,6,8,10,12,14,16,-1,18,20,-1,22,24,26,-1,-1,-1,-1,-1,-1,-1,-1,-1,-1,-1,-1],"split_conditions":[-9.956451E0,1.0084645E0,-4.0070963E-1,2.2072315E0,9.9330115E-1,4.479427E-1,-5.998186E0,-4.4216113E0,-1.9176966E-3,-4.0063322E-1,2.7839657E-2,3.2743623E-3,-3.6813533E0,-1.9557128E0,-9.903341E0,3.202738E-3,-1.4231596E-3,-3.6868064E-3,7.951021E-4,2.9789647E-3,-1.2493285E-3,-2.5176667E-3,-0E0,-2.226704E-3,2.219441E-3,9.050629E-4,-3.2400158E-3],"split_indices":[2318,3583,2435,2280,2407,3549,2368,2288,0,3172,3555,0,2248,2344,2266,0,0,0,0,0,0,0,0,0,0,0,0],"split_type":[0,0,0,0,0,0,0,0,0,0,0,0,0,0,0,0,0,0,0,0,0,0,0,0,0,0,0],"sum_hessian":[4.88E2,2.66E2,2.22E2,2.18E2,4.8E1,2.3E1,1.99E2,2.12E2,6E0,3.2E1,1.6E1,9E0,1.4E1,2.5E1,1.74E2,2.07E2,5E0,2.8E1,4E0,1.1E1,5E0,1.1E1,3E0,1.5E1,1E1,4E0,1.7E2],"tree_param":{"num_deleted":"0","num_feature":"5217","num_nodes":"27","size_leaf_vector":"0"}},{"base_weights":[2.6753925E-2,-2.386365E-1,2.412838E-1,-2.5831804E-1,1.6641477E-1,-1.797507E-1,2.841856E-1,-1.2476702E-1,-3.3065492E-1,-2.688212E-4,2.478449E-3,1.8289662E-3,-2.8246206E-1,3.0759048E-1,-5.5698022E-2,-2.4637422E-3,9.3785446E-4,3.503851E-4,-3.440239E-3,-1.2851249E-4,-3.1315614E-3,3.2205454E-3,-1.6743164E-3,-2.9420885E-3,2.175629E-3],"categories":[],"categories_nodes":[],"categories_segments":[],"categories_sizes":[],"default_left":[false,false,false,true,false,true,true,true,false,false,false,false,true,true,true,false,false,false,false,false,false,false,false,false,false],"id":41,"left_children":[1,3,5,7,9,11,13,15,17,-1,-1,-1,19,21,23,-1,-1,-1,-1,-1,-1,-1,-1,-1,-1],"loss_changes":[2.8015102E1,1.9779758E0,5.1790285E0,1.7962446E0,2.6003173E-1,1.3112074E0,2.091631E0,2.3367276E0,7.4628735E-1,0E0,0E0,0E0,1.4588821E-1,1.892828E0,1.631223E0,0E0,0E0,0E0,0E0,0E0,0E0,0E0,0E0,0E0,0E0],"parents":[2147483647,0,0,1,1,2,2,3,3,4,4,5,5,6,6,7,7,8,8,12,12,13,13,14,14],"right_children":[2,4,6,8,10,12,14,16,18,-1,-1,-1,20,22,24,-1,-1,-1,-1,-1,-1,-1,-1,-1,-1],"split_conditions":[4.338959E1,8.595134E3,4.915981E0,-1.1004709E-1,7.9615803E0,-2.32059E0,-2.1463841E-2,1.8040903E1,-2.4864258E-1,-2.688212E-4,2.478449E-3,1.8289662E-3,-2.549282E-2,1.3362986E-1,5.4175344E0,-2.4637422E-3,9.3785446E-4,3.503851E-4,-3.440239E-3,-1.2851249E-4,-3.1315614E-3,3.2205454E-3,-1.6743164E-3,-2.9420885E-3,2.175629E-3],"split_indices":[4105,2800,2507,3173,2915,2395,2342,4087,3088,0,0,0,3159,3205,2477,0,0,0,0,0,0,0,0,0,0],"split_type":[0,0,0,0,0,0,0,0,0,0,0,0,0,0,0,0,0,0,0,0,0,0,0,0,0],"sum_hessian":[4.82E2,2.15E2,2.67E2,2.07E2,8E0,2.3E1,2.44E2,7.8E1,1.29E2,3E0,5E0,4E0,1.9E1,2.29E2,1.5E1,5E1,2.8E1,4E0,1.25E2,3E0,1.6E1,2.24E2,5E0,8E0,7E0],"tree_param":{"num_deleted":"0","num_feature":"5217","num_nodes":"25","size_leaf_vector":"0"}},{"base_weights":[2.4486193E-2,2.5095373E-1,-2.03073E-1,-2.3101753E-1,2.7637568E-1,1.5765667E-1,-2.4787818E-1,-2.6339425E-3,-2.9613584E-4,-1.8293421E-3,2.93995E-1,3.2953946E-3,-2.4868015E-3,2.5991036E-3,-2.6757067E-1,-2.4381289E-4,3.208431E-3,4.0024752E-4,-2.9233657E-3],"categories":[],"categories_nodes":[],"categories_segments":[],"categories_sizes":[],"default_left":[true,false,true,true,true,true,true,false,false,false,true,false,false,false,true,false,false,false,false],"id":42,"left_children":[1,3,5,7,9,11,13,-1,-1,-1,15,-1,-1,-1,17,-1,-1,-1,-1],"loss_changes":[2.3553314E1,3.129631E0,3.8894854E0,2.2990167E-2,2.0604134E0,2.3734202E0,2.398409E0,0E0,0E0,0E0,1.8979893E0,0E0,0E0,0E0,1.6073112E0,0E0,0E0,0E0,0E0],"parents":[2147483647,0,0,1,1,2,2,3,3,4,4,5,5,6,6,10,10,14,14],"right_children":[2,4,6,8,10,12,14,-1,-1,-1,16,-1,-1,-1,18,-1,-1,-1,-1],"split_conditions":[-9.943756E0,4.6620154E0,-8.324942E0,3.2188407E-1,4.9839787E0,1E0,6.7130274E-1,-2.6339425E-3,-2.9613584E-4,-1.8293421E-3,4.2113757E0,3.2953946E-3,-2.4868015E-3,2.5991036E-3,-9.014982E0,-2.4381289E-4,3.208431E-3,4.0024752E-4,-2.9233657E-3],"split_indices":[2242,3985,2316,3519,4035,90,3304,0,0,0,4004,0,0,0,2268,0,0,0,0],"split_type":[0,0,0,0,0,0,0,0,0,0,0,0,0,0,0,0,0,0,0],"sum_hessian":[4.47E2,2.24E2,2.23E2,9E0,2.15E2,2.3E1,2E2,6E0,3E0,6E0,2.09E2,1.7E1,6E0,5E0,1.95E2,1.6E1,1.93E2,1.4E1,1.81E2],"tree_param":{"num_deleted":"0","num_feature":"5217","num_nodes":"19","size_leaf_vector":"0"}},{"base_weights":[3.9616052E-2,2.4179612E-1,-2.0412481E-1,-2.7186065E-3,2.6640758E-1,-2.5832206E-1,1.9871718E-1,2.834003E-1,-2.0585358E-3,-2.7835497E-1,1.3845691E-1,-1.7761054E-3,2.9461577E-3,2.9911941E-3,-1.5907151E-3,-2.977913E-3,1.0508153E-3,2.282159E-3,-4.777741E-4],"categories":[],"categories_nodes":[],"categories_segments":[],"categories_sizes":[],"default_left":[true,true,false,false,true,true,false,true,false,true,true,false,false,false,false,false,false,false,false],"id":43,"left_children":[1,3,5,-1,7,9,11,13,-1,15,17,-1,-1,-1,-1,-1,-1,-1,-1],"loss_changes":[2.5087442E1,3.8760166E0,5.306033E0,0E0,2.4501476E0,1.8441105E0,1.3560139E0,2.067236E0,0E0,1.6513453E0,2.8987235E-1,0E0,0E0,0E0,0E0,0E0,0E0,0E0,0E0],"parents":[2147483647,0,0,1,1,2,2,4,4,5,5,6,6,7,7,9,9,10,10],"right_children":[2,4,6,-1,8,10,12,14,-1,16,18,-1,-1,-1,-1,-1,-1,-1,-1],"split_conditions":[-5.158269E0,2.4275122E1,6.457804E0,-2.7186065E-3,1E0,2.4123262E1,8.247992E-1,-2.2235942E0,-2.0585358E-3,2.1680639E0,3.2586E2,-1.7761054E-3,2.9461577E-3,2.9911941E-3,-1.5907151E-3,-2.977913E-3,1.0508153E-3,2.282159E-3,-4.777741E-4],"split_indices":[2372,4057,4083,0,2725,4054,3290,2330,0,2493,4028,0,0,0,0,0,0,0,0],"split_type":[0,0,0,0,0,0,0,0,0,0,0,0,0,0,0,0,0,0,0],"sum_hessian":[4.99E2,2.73E2,2.26E2,1E1,2.63E2,2.01E2,2.5E1,2.56E2,7E0,1.93E2,8E0,4E0,2.1E1,2.49E2,7E0,1.85E2,8E0,5E0,3E0],"tree_param":{"num_deleted":"0","num_feature":"5217","num_nodes":"19","size_leaf_vector":"0"}},{"base_weights":[3.1582747E-2,-2.2883035E-1,2.4196044E-1,-2.579369E-1,6.329457E-2,2.769846E-1,-1.4557762E-1,-2.763398E-1,2.290892E-3,-2.3040485E-3,2.883958E-3,-1.09757364E-1,2.9207623E-1,2.1047292E-3,-3.1001102E-3,-3.0395444E-3,-6.341719E-5,1.1672549E-3,-2.4606495E-3,-9.54316E-4,3.0406883E-3],"categories":[],"categories_nodes":[],"categories_segments":[],"categories_sizes":[],"default_left":[true,true,true,true,true,true,false,true,false,false,false,false,false,false,false,false,false,false,false,false,false],"id":44,"left_children":[1,3,5,7,9,11,13,15,-1,-1,-1,17,19,-1,-1,-1,-1,-1,-1,-1,-1],"loss_changes":[2.7451563E1,2.0057106E0,3.9745312E0,2.1586075E0,1.9247285E0,1.6726799E0,1.8584101E0,1.4505138E0,0E0,0E0,0E0,5.578716E-1,1.3184643E0,0E0,0E0,0E0,0E0,0E0,0E0,0E0,0E0],"parents":[2147483647,0,0,1,1,2,2,3,3,4,4,5,5,6,6,7,7,11,11,12,12],"right_children":[2,4,6,8,10,12,14,16,-1,-1,-1,18,20,-1,-1,-1,-1,-1,-1,-1,-1],"split_conditions":[9.815596E0,1E0,5.724138E-1,5E0,9.893439E0,-1.1343522E-1,-7.2800393E0,1.0434519E0,2.290892E-3,-2.3040485E-3,2.883958E-3,9.1161346E-1,7.3239293E0,2.1047292E-3,-3.1001102E-3,-3.0395444E-3,-6.341719E-5,1.1672549E-3,-2.4606495E-3,-9.54316E-4,3.0406883E-3],"split_indices":[2347,961,3965,4140,3726,3175,2333,3787,0,0,0,3330,2332,0,0,0,0,0,0,0,0],"split_type":[0,0,0,0,0,0,0,0,0,0,0,0,0,0,0,0,0,0,0,0,0],"sum_hessian":[4.91E2,2.19E2,2.72E2,2E2,1.9E1,2.51E2,2.1E1,1.95E2,5E0,8E0,1.1E1,8E0,2.43E2,6E0,1.5E1,1.76E2,1.9E1,3E0,5E0,6E0,2.37E2],"tree_param":{"num_deleted":"0","num_feature":"5217","num_nodes":"21","size_leaf_vector":"0"}},{"base_weights":[4.863251E-3,-2.5694612E-1,1.9038786E-1,-2.8912172E-1,1.6959406E-2,-1.6389161E-1,2.3877047E-1,-3.0359584E-1,1.9208236E-3,-2.4079978E-3,2.149637E-1,1.4933606E-3,-2.6869416E-1,-1.5898019E-1,2.5941625E-1,-3.1794866E-3,1.7864911E-3,-3.6756005E-4,2.8917363E-3,-3.3664433E-3,5.821977E-4,3.0977212E-4,-2.2771002E-3,-1.0956799E-3,2.768995E-3],"categories":[],"categories_nodes":[],"categories_segments":[],"categories_sizes":[],"default_left":[true,true,true,true,true,false,true,true,false,false,true,false,true,true,false,false,false,false,false,false,false,false,false,false,false],"id":45,"left_children":[1,3,5,7,9,11,13,15,-1,-1,17,-1,19,21,23,-1,-1,-1,-1,-1,-1,-1,-1,-1,-1],"loss_changes":[2.2969675E1,1.7790966E0,4.9511976E0,1.5285702E0,1.532168E0,1.3943386E0,2.2363768E0,1.495369E0,0E0,0E0,3.959478E-1,0E0,7.700412E-1,2.507786E-1,1.690877E0,0E0,0E0,0E0,0E0,0E0,0E0,0E0,0E0,0E0,0E0],"parents":[2147483647,0,0,1,1,2,2,3,3,4,4,5,5,6,6,7,7,10,10,12,12,13,13,14,14],"right_children":[2,4,6,8,10,12,14,16,-1,-1,18,-1,20,22,24,-1,-1,-1,-1,-1,-1,-1,-1,-1,-1],"split_conditions":[2.28E2,1.643305E1,-2.3225428E1,1E0,4.5937495E3,7.986137E-1,2.192654E-1,1E0,1.9208236E-3,-2.4079978E-3,9.013893E-1,1.4933606E-3,1.0584237E-3,1.2482635E0,4.191407E0,-3.1794866E-3,1.7864911E-3,-3.6756005E-4,2.8917363E-3,-3.3664433E-3,5.821977E-4,3.0977212E-4,-2.2771002E-3,-1.0956799E-3,2.768995E-3],"split_indices":[2775,4086,2990,1883,2799,3326,3154,1787,0,0,2946,0,3133,4006,4004,0,0,0,0,0,0,0,0,0,0],"split_type":[0,0,0,0,0,0,0,0,0,0,0,0,0,0,0,0,0,0,0,0,0,0,0,0,0],"sum_hessian":[4.63E2,1.91E2,2.72E2,1.71E2,2E1,3.1E1,2.41E2,1.68E2,3E0,8E0,1.2E1,7E0,2.4E1,1E1,2.31E2,1.65E2,3E0,3E0,9E0,2E1,4E0,3E0,7E0,9E0,2.22E2],"tree_param":{"num_deleted":"0","num_feature":"5217","num_nodes":"25","size_leaf_vector":"0"}},{"base_weights":[1.0999578E-2,2.575194E-1,-2.0733614E-1,-1.23793E-1,2.9456076E-1,-0E0,-2.8396496E-1,1.5583935E-3,-2.6584804E-1,-4.4932164E-2,3.1445825E-1,2.1347515E-1,-2.2813994E-1,-2.9504043E-1,5.6236127E-4,-1.9091538E-4,-3.0216884E-3,1.2795733E-3,-2.2264454E-3,3.2737395E-3,-8.9793146E-4,2.9400727E-3,-1.3802777E-3,9.1553107E-4,-3.0316794E-3,-3.0372764E-3,7.775208E-4],"categories":[],"categories_nodes":[],"categories_segments":[],"categories_sizes":[],"default_left":[false,true,true,true,true,true,true,false,true,true,false,true,true,false,false,false,false,false,false,false,false,false,false,false,false,false,false],"id":46,"left_children":[1,3,5,7,9,11,13,-1,15,17,19,21,23,25,-1,-1,-1,-1,-1,-1,-1,-1,-1,-1,-1,-1,-1],"loss_changes":[2.6807257E1,3.5044947E0,4.2138634E0,1.1715053E0,1.5499363E0,3.9438744E0,8.3404255E-1,0E0,1.00352526E-1,6.435074E-1,1.2358589E0,1.4074093E0,1.0953925E0,7.4951935E-1,0E0,0E0,0E0,0E0,0E0,0E0,0E0,0E0,0E0,0E0,0E0,0E0,0E0],"parents":[2147483647,0,0,1,1,2,2,3,3,4,4,5,5,6,6,8,8,9,9,10,10,11,11,12,12,13,13],"right_children":[2,4,6,8,10,12,14,-1,16,18,20,22,24,26,-1,-1,-1,-1,-1,-1,-1,-1,-1,-1,-1,-1,-1],"split_conditions":[-4.9653554E0,8.910074E0,1.9283807E-1,7.778477E-1,3.644127E0,2.299175E0,1E0,1.5583935E-3,1.2557716E0,9.608527E-1,3.6867035E2,3.4236722E0,-5.8487015E0,1.8580878E0,5.6236127E-4,-1.9091538E-4,-3.0216884E-3,1.2795733E-3,-2.2264454E-3,3.2737395E-3,-8.9793146E-4,2.9400727E-3,-1.3802777E-3,9.1553107E-4,-3.0316794E-3,-3.0372764E-3,7.775208E-4],"split_indices":[4027,3704,3488,3295,2302,2228,1648,0,3163,3355,2847,3561,2328,3024,0,0,0,0,0,0,0,0,0,0,0,0,0],"split_type":[0,0,0,0,0,0,0,0,0,0,0,0,0,0,0,0,0,0,0,0,0,0,0,0,0,0,0],"sum_hessian":[4.88E2,2.29E2,2.59E2,1.9E1,2.1E2,7.1E1,1.88E2,6E0,1.3E1,1.1E1,1.99E2,3.7E1,3.4E1,1.83E2,5E0,3E0,1E1,6E0,5E0,1.94E2,5E0,3.1E1,6E0,6E0,2.8E1,1.8E2,3E0],"tree_param":{"num_deleted":"0","num_feature":"5217","num_nodes":"27","size_leaf_vector":"0"}},{"base_weights":[2.3273503E-2,-2.3061647E-1,2.105267E-1,9.535331E-3,-2.8765595E-1,-8.0051504E-2,2.584328E-1,-1.4840487E-1,2.9322475E-1,-3.054169E-1,1.4100408E-3,1.4512444E-1,-2.5240758E-1,2.8550518E-1,-4.842843E-2,-2.4391136E-3,2.2006251E-3,-2.5493716E-4,3.72133E-3,-3.1613233E-3,9.1295707E-4,-1.5861512E-3,2.6223743E-3,1.3970868E-3,-3.3469477E-3,2.4515748E-4,3.1511872E-3,-2.1743062E-3,2.028365E-3],"categories":[],"categories_nodes":[],"categories_segments":[],"categories_sizes":[],"default_left":[true,false,true,true,true,true,true,true,true,true,false,false,true,true,true,false,false,false,false,false,false,false,false,false,false,false,false,false,false],"id":47,"left_children":[1,3,5,7,9,11,13,15,17,19,-1,21,23,25,27,-1,-1,-1,-1,-1,-1,-1,-1,-1,-1,-1,-1,-1,-1],"loss_changes":[2.3631268E1,2.9318323E0,4.1025333E0,2.2483304E0,1.5336609E0,1.9015404E0,2.144785E0,1.3968766E0,5.3479064E-1,8.724499E-1,0E0,1.0009172E0,1.1244833E0,1.6895828E0,1.2411175E0,0E0,0E0,0E0,0E0,0E0,0E0,0E0,0E0,0E0,0E0,0E0,0E0,0E0,0E0],"parents":[2147483647,0,0,1,1,2,2,3,3,4,4,5,5,6,6,7,7,8,8,9,9,11,11,12,12,13,13,14,14],"right_children":[2,4,6,8,10,12,14,16,18,20,-1,22,24,26,28,-1,-1,-1,-1,-1,-1,-1,-1,-1,-1,-1,-1,-1,-1],"split_conditions":[4.221988E1,-3.2333515E0,9.007162E0,-2.2533734E0,1E0,6.287879E-1,3.2893941E0,1E0,-2.759138E0,1.1017791E1,1.4100408E-3,2.0792515E0,-1.9493367E2,1.7275658E0,8.580635E-1,-2.4391136E-3,2.2006251E-3,-2.5493716E-4,3.72133E-3,-3.1613233E-3,9.1295707E-4,-1.5861512E-3,2.6223743E-3,1.3970868E-3,-3.3469477E-3,2.4515748E-4,3.1511872E-3,-2.1743062E-3,2.028365E-3],"split_indices":[4105,2392,3704,2374,755,3939,3122,4675,2485,2473,0,2558,2970,2865,3325,0,0,0,0,0,0,0,0,0,0,0,0,0,0],"split_type":[0,0,0,0,0,0,0,0,0,0,0,0,0,0,0,0,0,0,0,0,0,0,0,0,0,0,0,0,0],"sum_hessian":[4.87E2,2.06E2,2.81E2,4E1,1.66E2,3.9E1,2.42E2,2.7E1,1.3E1,1.61E2,5E0,1.7E1,2.2E1,2.23E2,1.9E1,2.3E1,4E0,3E0,1E1,1.58E2,3E0,4E0,1.3E1,3E0,1.9E1,2.4E1,1.99E2,1.2E1,7E0],"tree_param":{"num_deleted":"0","num_feature":"5217","num_nodes":"29","size_leaf_vector":"0"}},{"base_weights":[3.5772115E-2,-2.4110377E-1,2.1067026E-1,1.2689692E-1,-2.684323E-1,-1.474423E-1,2.7036205E-1,2.8917813E-3,-1.4886518E-3,-2.9773852E-1,-1.7851746E-2,-2.536763E-1,2.0393229E-3,2.835722E-1,-2.3567677E-3,-3.0937013E-3,9.830222E-4,2.5197088E-3,-2.0894662E-3,8.0127566E-4,-2.9785421E-3,2.980087E-3,-8.6543313E-4],"categories":[],"categories_nodes":[],"categories_segments":[],"categories_sizes":[],"default_left":[true,false,true,true,true,true,false,false,false,true,true,true,false,true,false,false,false,false,false,false,false,false,false],"id":48,"left_children":[1,3,5,7,9,11,13,-1,-1,15,17,19,-1,21,-1,-1,-1,-1,-1,-1,-1,-1,-1],"loss_changes":[2.3252838E1,2.0550566E0,6.4962616E0,9.452902E-1,1.2269897E0,1.9433951E0,2.0368996E0,0E0,0E0,8.917923E-1,1.4964211E0,6.867347E-1,0E0,1.4858952E0,0E0,0E0,0E0,0E0,0E0,0E0,0E0,0E0,0E0],"parents":[2147483647,0,0,1,1,2,2,3,3,4,4,5,5,6,6,9,9,10,10,11,11,13,13],"right_children":[2,4,6,8,10,12,14,-1,-1,16,18,20,-1,22,-1,-1,-1,-1,-1,-1,-1,-1,-1],"split_conditions":[8.68299E0,-9.639014E0,9.007162E0,1.1151459E0,1.0969244E1,4.7310925E-1,1.334255E0,2.8917813E-3,-1.4886518E-3,1E0,-1.405576E-1,-1.4075771E-1,2.0393229E-3,-1.3985363E1,-2.3567677E-3,-3.0937013E-3,9.830222E-4,2.5197088E-3,-2.0894662E-3,8.0127566E-4,-2.9785421E-3,2.980087E-3,-8.6543313E-4],"split_indices":[2546,2268,3704,3321,2594,3932,3315,0,0,1678,3191,3203,0,2465,0,0,0,0,0,0,0,0,0],"split_type":[0,0,0,0,0,0,0,0,0,0,0,0,0,0,0,0,0,0,0,0,0,0,0],"sum_hessian":[4.7E2,1.81E2,2.89E2,1.1E1,1.7E2,4E1,2.49E2,7E0,4E0,1.51E2,1.9E1,3.2E1,8E0,2.45E2,4E0,1.48E2,3E0,7E0,1.2E1,3E0,2.9E1,2.37E2,8E0],"tree_param":{"num_deleted":"0","num_feature":"5217","num_nodes":"23","size_leaf_vector":"0"}},{"base_weights":[2.0724552E-2,-2.4754299E-1,1.9898099E-1,-2.9097778E-1,1.2035536E-2,-1.6861624E-1,2.4173455E-1,1.3551626E-2,-3.1021762E-1,3.2716526E-3,-2.296637E-1,-3.143348E-1,1.550812E-1,-1.6605954E-1,2.602836E-1,-1.7410157E-3,2.4648798E-3,-3.1999971E-3,-0E0,-2.6199892E-3,-0E0,-3.414757E-3,-2.734547E-4,1.9127344E-3,-0E0,1.1655556E-3,-2.9361146E-3,-2.3700069E-3,2.7645295E-3],"categories":[],"categories_nodes":[],"categories_segments":[],"categories_sizes":[],"default_left":[true,false,true,false,true,true,false,true,true,false,true,true,false,true,false,false,false,false,false,false,false,false,false,false,false,false,false,false,false],"id":49,"left_children":[1,3,5,7,9,11,13,15,17,-1,19,21,23,25,27,-1,-1,-1,-1,-1,-1,-1,-1,-1,-1,-1,-1,-1,-1],"loss_changes":[2.4677658E1,2.368E0,5.083102E0,1.0877466E0,2.9751048E0,1.910568E0,2.3435078E0,8.7747717E-1,5.1753235E-1,0E0,1.4382637E-1,1.1894655E-1,6.573832E-2,7.2953725E-1,2.5025482E0,0E0,0E0,0E0,0E0,0E0,0E0,0E0,0E0,0E0,0E0,0E0,0E0,0E0,0E0],"parents":[2147483647,0,0,1,1,2,2,3,3,4,4,5,5,6,6,7,7,8,8,10,10,11,11,12,12,13,13,14,14],"right_children":[2,4,6,8,10,12,14,16,18,-1,20,22,24,26,28,-1,-1,-1,-1,-1,-1,-1,-1,-1,-1,-1,-1,-1,-1],"split_conditions":[4.143163E1,1E0,-1.0205936E1,6.915646E-1,-4.3275075E0,3.6920425E1,6.0720146E-1,5.0227184E0,6.6829343E0,3.2716526E-3,1.0126518E0,-3.7866735E0,7.4556214E-1,5.801056E0,1.2665698E2,-1.7410157E-3,2.4648798E-3,-3.1999971E-3,-0E0,-2.6199892E-3,-0E0,-3.414757E-3,-2.734547E-4,1.9127344E-3,-0E0,1.1655556E-3,-2.9361146E-3,-2.3700069E-3,2.7645295E-3],"split_indices":[4105,4229,2450,3312,2372,2592,3338,2281,2311,0,3302,2977,2982,2935,2907,0,0,0,0,0,0,0,0,0,0,0,0,0,0],"split_type":[0,0,0,0,0,0,0,0,0,0,0,0,0,0,0,0,0,0,0,0,0,0,0,0,0,0,0,0,0],"sum_hessian":[5.06E2,2.01E2,3.05E2,1.72E2,2.9E1,3E1,2.75E2,1E1,1.62E2,1.2E1,1.7E1,2.1E1,9E0,1E1,2.65E2,6E0,4E0,1.57E2,5E0,1.4E1,3E0,1.8E1,3E0,6E0,3E0,3E0,7E0,6E0,2.59E2],"tree_param":{"num_deleted":"0","num_feature":"5217","num_nodes":"29","size_leaf_vector":"0"}},{"base_weights":[3.923793E-2,2.363257E-1,-2.0670137E-1,-2.3468088E-3,2.604563E-1,-2.789003E-1,8.624176E-2,2.7582756E-1,-2.4150736E-3,1.018424E-3,-2.8807014E-1,1.9692108E-1,-1.6581511E-1,2.8690994E-3,-8.381487E-4,-3.061386E-3,-2.381807E-4,-1.7064479E-3,2.6820013E-3,9.301163E-4,-2.5525098E-3],"categories":[],"categories_nodes":[],"categories_segments":[],"categories_sizes":[],"default_left":[true,true,true,false,true,false,true,true,false,false,false,false,true,false,false,false,false,false,false,false,false],"id":50,"left_children":[1,3,5,-1,7,9,11,13,-1,-1,15,17,19,-1,-1,-1,-1,-1,-1,-1,-1],"loss_changes":[2.6131054E1,3.7065353E0,5.2155724E0,0E0,2.5509415E0,8.426342E-1,1.5891448E0,1.2605247E0,0E0,0E0,8.4250164E-1,1.2341806E0,5.5160177E-1,0E0,0E0,0E0,0E0,0E0,0E0,0E0,0E0],"parents":[2147483647,0,0,1,1,2,2,4,4,5,5,6,6,7,7,10,10,11,11,12,12],"right_children":[2,4,6,-1,8,10,12,14,-1,-1,16,18,20,-1,-1,-1,-1,-1,-1,-1,-1],"split_conditions":[-4.7678704E0,2.44E2,7.182578E1,-2.3468088E-3,8.0836006E1,-3.5324168E-1,1.6533383E2,1.6584401E-1,-2.4150736E-3,1.018424E-3,1.97768E0,2.735099E0,5.282376E0,2.8690994E-3,-8.381487E-4,-3.061386E-3,-2.381807E-4,-1.7064479E-3,2.6820013E-3,9.301163E-4,-2.5525098E-3],"split_indices":[2372,2772,2966,0,2588,3179,2954,3167,0,0,2493,2339,4109,0,0,0,0,0,0,0,0],"split_type":[0,0,0,0,0,0,0,0,0,0,0,0,0,0,0,0,0,0,0,0,0],"sum_hessian":[5.29E2,2.94E2,2.35E2,1.2E1,2.82E2,1.89E2,4.6E1,2.76E2,6E0,3E0,1.86E2,3.3E1,1.3E1,2.69E2,7E0,1.73E2,1.3E1,4E0,2.9E1,3E0,1E1],"tree_param":{"num_deleted":"0","num_feature":"5217","num_nodes":"21","size_leaf_vector":"0"}},{"base_weights":[3.646486E-2,2.1610883E-1,-2.0373121E-1,-1.1920072E-1,2.5565654E-1,-2.4087903E-1,6.876692E-2,1.2079446E-1,-3.103962E-3,2.7093437E-1,-2.4411753E-3,-2.707745E-1,5.65693E-2,2.906224E-3,-1.674318E-1,-1.5142278E-3,2.3237884E-3,-1.2948876E-3,2.8384414E-3,-2.8482224E-3,1.3076942E-3,2.9307504E-3,-1.9400155E-3,7.2092516E-4,-2.5164862E-3],"categories":[],"categories_nodes":[],"categories_segments":[],"categories_sizes":[],"default_left":[true,true,true,true,true,true,true,false,false,true,false,true,true,false,true,false,false,false,false,false,false,false,false,false,false],"id":51,"left_children":[1,3,5,7,9,11,13,15,-1,17,-1,19,21,-1,23,-1,-1,-1,-1,-1,-1,-1,-1,-1,-1],"loss_changes":[2.1364765E1,3.918806E0,2.246048E0,1.7206687E0,2.280426E0,1.7697706E0,1.7752738E0,7.307864E-1,0E0,1.4915504E0,0E0,1.1718512E0,1.5386827E0,0E0,4.5158917E-1,0E0,0E0,0E0,0E0,0E0,0E0,0E0,0E0,0E0,0E0],"parents":[2147483647,0,0,1,1,2,2,3,3,4,4,5,5,6,6,7,7,9,9,11,11,12,12,14,14],"right_children":[2,4,6,8,10,12,14,16,-1,18,-1,20,22,-1,24,-1,-1,-1,-1,-1,-1,-1,-1,-1,-1],"split_conditions":[-9.801806E0,-4.5272775E-2,1.1E1,2.4385922E-1,3.7010899E0,4.454602E2,-1.2769755E-3,9.9495244E-1,-3.103962E-3,6.307887E0,-2.4411753E-3,1E0,1.2263747E1,2.906224E-3,-4.3875E1,-1.5142278E-3,2.3237884E-3,-1.2948876E-3,2.8384414E-3,-2.8482224E-3,1.3076942E-3,2.9307504E-3,-1.9400155E-3,7.2092516E-4,-2.5164862E-3],"split_indices":[2242,3244,3508,3998,3795,2736,3066,3279,0,2353,0,4836,3471,0,2968,0,0,0,0,0,0,0,0,0,0],"split_type":[0,0,0,0,0,0,0,0,0,0,0,0,0,0,0,0,0,0,0,0,0,0,0,0,0],"sum_hessian":[4.85E2,2.78E2,2.07E2,2.8E1,2.5E2,1.83E2,2.4E1,1.3E1,1.5E1,2.45E2,5E0,1.67E2,1.6E1,1.2E1,1.2E1,3E0,1E1,6E0,2.39E2,1.63E2,4E0,8E0,8E0,3E0,9E0],"tree_param":{"num_deleted":"0","num_feature":"5217","num_nodes":"25","size_leaf_vector":"0"}},{"base_weights":[1.5943184E-2,-2.1937141E-1,2.1808028E-1,-2.4455172E-1,1.7253622E-1,-1.1141661E-1,2.7183956E-1,-2.6340556E-1,1.9152284E-3,-4.747838E-4,2.4378162E-3,2.5140329E-3,-2.3669824E-1,-1.3234068E-1,2.8551677E-1,-2.8625473E-3,8.5062726E-4,-3.260004E-3,1.3062722E-3,1.0818867E-5,-1.9555031E-3,2.9300684E-3,-9.57711E-4],"categories":[],"categories_nodes":[],"categories_segments":[],"categories_sizes":[],"default_left":[true,true,true,true,true,false,false,true,false,false,false,false,true,false,true,false,false,false,false,false,false,false,false],"id":52,"left_children":[1,3,5,7,9,11,13,15,-1,-1,-1,-1,17,19,21,-1,-1,-1,-1,-1,-1,-1,-1],"loss_changes":[2.4402504E1,2.5569725E0,5.056409E0,2.1093073E0,3.4397763E-1,2.2051592E0,1.5254478E0,1.8776312E0,0E0,0E0,0E0,0E0,1.3477609E0,1.1327417E-1,8.254509E-1,0E0,0E0,0E0,0E0,0E0,0E0,0E0,0E0],"parents":[2147483647,0,0,1,1,2,2,3,3,4,4,5,5,6,6,7,7,12,12,13,13,14,14],"right_children":[2,4,6,8,10,12,14,16,-1,-1,-1,-1,18,20,22,-1,-1,-1,-1,-1,-1,-1,-1],"split_conditions":[2.6653882E2,7.9197936E0,9.007162E0,1E0,1.2703787E0,1.4953561E1,-6.688828E-1,5.581041E0,1.9152284E-3,-4.747838E-4,2.4378162E-3,2.5140329E-3,6.080465E2,8.24611E-1,2.759263E-1,-2.8625473E-3,8.5062726E-4,-3.260004E-3,1.3062722E-3,1.0818867E-5,-1.9555031E-3,2.9300684E-3,-9.57711E-4],"split_indices":[3990,4132,3704,1581,3268,2560,3866,3709,0,0,0,0,2992,3300,3095,0,0,0,0,0,0,0,0],"split_type":[0,0,0,0,0,0,0,0,0,0,0,0,0,0,0,0,0,0,0,0,0,0,0],"sum_hessian":[5.03E2,2.32E2,2.71E2,2.2E2,1.2E1,3.7E1,2.34E2,2.13E2,7E0,3E0,9E0,8E0,2.9E1,6E0,2.28E2,2.01E2,1.2E1,2.4E1,5E0,3E0,3E0,2.25E2,3E0],"tree_param":{"num_deleted":"0","num_feature":"5217","num_nodes":"23","size_leaf_vector":"0"}},{"base_weights":[2.8729133E-2,2.19861E-1,-1.7511484E-1,-2.0728646E-1,2.544204E-1,-2.2769108E-1,8.046575E-2,-2.9547014E-3,1.1920388E-3,2.7608722E-1,-5.118615E-2,9.853097E-2,-2.5299758E-1,-1.8574172E-1,2.338726E-1,2.8978186E-3,-2.0702817E-3,-2.1965262E-3,1.7740125E-3,-1.6048474E-3,2.675696E-3,-2.650329E-3,1.7545539E-3,4.881118E-4,-2.512239E-3,3.1601917E-3,-1.313852E-3],"categories":[],"categories_nodes":[],"categories_segments":[],"categories_sizes":[],"default_left":[true,false,true,true,true,false,false,false,false,true,true,true,true,true,true,false,false,false,false,false,false,false,false,false,false,false,false],"id":53,"left_children":[1,3,5,7,9,11,13,-1,-1,15,17,19,21,23,25,-1,-1,-1,-1,-1,-1,-1,-1,-1,-1,-1,-1],"loss_changes":[1.9638557E1,4.106515E0,3.3850703E0,8.271374E-1,1.702177E0,1.8242178E0,2.059725E0,0E0,0E0,1.8167114E0,9.692446E-1,1.0135187E0,1.226368E0,3.733756E-1,1.1562095E0,0E0,0E0,0E0,0E0,0E0,0E0,0E0,0E0,0E0,0E0,0E0,0E0],"parents":[2147483647,0,0,1,1,2,2,3,3,4,4,5,5,6,6,9,9,10,10,11,11,12,12,13,13,14,14],"right_children":[2,4,6,8,10,12,14,-1,-1,16,18,20,22,24,26,-1,-1,-1,-1,-1,-1,-1,-1,-1,-1,-1,-1],"split_conditions":[-1.2120014E1,-1.0378592E-2,4.8411903E0,4.096623E1,3.0734768E0,-2.2701061E1,2.2946887E-1,-2.9547014E-3,1.1920388E-3,-2.897908E0,-1.8979166E-1,3.66262E0,2.255019E0,-1.0413415E1,-2.266053E0,2.8978186E-3,-2.0702817E-3,-2.1965262E-3,1.7740125E-3,-1.6048474E-3,2.675696E-3,-2.650329E-3,1.7545539E-3,4.881118E-4,-2.512239E-3,3.1601917E-3,-1.313852E-3],"split_indices":[2221,3146,3059,4040,3122,3063,3154,0,0,2428,3866,2636,3861,2986,2450,0,0,0,0,0,0,0,0,0,0,0,0],"split_type":[0,0,0,0,0,0,0,0,0,0,0,0,0,0,0,0,0,0,0,0,0,0,0,0,0,0,0],"sum_hessian":[4.94E2,2.55E2,2.39E2,1.7E1,2.38E2,1.99E2,4E1,1.4E1,3E0,2.23E2,1.5E1,1.3E1,1.86E2,1.4E1,2.6E1,2.19E2,4E0,9E0,6E0,5E0,8E0,1.83E2,3E0,3E0,1.1E1,2.2E1,4E0],"tree_param":{"num_deleted":"0","num_feature":"5217","num_nodes":"27","size_leaf_vector":"0"}},{"base_weights":[1.7846573E-2,-2.211385E-1,1.9484857E-1,-2.7154553E-1,1.5236125E-2,-2.527012E-1,2.3139282E-1,-2.8874746E-1,4.8827678E-2,-1.8792859E-1,2.1092811E-1,-0E0,-2.8623943E-3,-2.4269159E-1,2.546786E-1,-2.9865801E-3,8.4863906E-4,-1.3352943E-3,2.1516941E-3,7.253186E-4,-2.5013061E-3,-1.2114949E-3,3.3546155E-3,-2.703668E-3,-3.699649E-4,2.7211364E-3,-1.1413164E-3],"categories":[],"categories_nodes":[],"categories_segments":[],"categories_sizes":[],"default_left":[true,true,false,true,false,false,false,true,true,true,true,false,false,true,true,false,false,false,false,false,false,false,false,false,false,false,false],"id":54,"left_children":[1,3,5,7,9,11,13,15,17,19,21,-1,-1,23,25,-1,-1,-1,-1,-1,-1,-1,-1,-1,-1,-1,-1],"loss_changes":[2.127863E1,2.5961142E0,5.016939E0,1.0699387E0,1.870321E0,1.8800414E-1,3.290885E0,7.738619E-1,5.461581E-1,4.8109907E-1,1.2171506E0,0E0,0E0,4.64046E-3,